0.32754534	0.8248476	-0.1517868	0.31181705	0.26061934	-0.55983365	-1.0320605	0.4479874	0.06002821	-0.4950707	1.2471088	0.43554565	-1.7509484	0.47860295	-0.12628256	-0.0075861714
0.45636153	-0.1096302	-0.13654186	-0.02393443	-0.33669403	0.28736347	-0.05305441	0.91903645	-0.70651674	-0.97771037	1.0960773	0.09861212	-0.78661466	-0.30979607	-0.019609889	0.9249512
0.6911179	0.25308582	-0.27494317	-0.35382187	0.49849558	-0.24788101	0.3307252	0.09739087	0.103279784	-0.61921275	0.52514696	-0.201123	0.18534264	0.30184966	0.7833407	0.26299998
-0.18188833	0.23355289	-0.07806829	0.3712123	-0.061851386	0.11616404	-0.35313445	-0.08803321	0.17765875	0.0015766353	0.049641777	0.31433088	-0.28445834	-0.008328929	-0.10208849	-0.07711478
0.9605743	-0.36919922	0.6815442	-0.76889336	-0.09046105	0.2087793	-0.4278024	-0.37236387	0.59539014	0.051246364	-0.044680588	0.53358805	-0.18195441	-0.12482871	0.23865911	-0.36242104
0.6106984	1.209531	-1.0164123	-0.5337471	1.6022971	-1.8968838	1.2275883	-0.48943636	0.34230557	-0.4226985	-0.04106016	-1.7338545	1.3685671	1.8476729	1.4875456	-0.25641456
0.30145803	-0.18538424	0.14832985	-0.3358353	-0.11942736	-0.19429907	0.009719619	0.25013715	-0.28556633	-0.22109468	0.42713365	-0.18907881	-0.28076205	0.03765734	0.0622211	0.20566407
-0.4150786	0.47860166	0.23495157	0.13673766	0.44249797	-0.85876495	-0.4959101	-0.83641845	0.86909884	0.79648256	-0.7852678	0.107216746	0.28909135	0.88292056	-0.23526835	-0.9309386
-0.43868327	0.46231225	-0.15266672	0.3294402	0.26198125	-0.5029523	-0.11465524	-0.15916818	0.18519711	0.26471606	-0.24877088	-0.053610805	0.052362576	0.4555597	-0.16678491	-0.2927361
-1.552848	0.5831115	-0.6550664	1.1757478	-0.010212102	-0.65397364	0.24320684	0.7939719	-0.8910049	-0.12877047	0.4366843	-0.52311844	-0.40359715	0.48757106	-0.6619809	0.5061633
-0.34248993	0.35184816	-0.2134898	0.14969371	0.23675965	-0.5231473	0.10293481	0.2514273	-0.3539009	-0.11764128	0.2550549	-0.32920018	-0.2833698	0.34571177	-0.14078784	0.17399113
0.23825788	-0.14207885	0.28976023	-0.44112396	-0.06129297	-0.256934	-0.20301962	0.07045267	-0.033131033	0.04480361	0.08403096	-0.1146857	-0.3603294	0.15341361	-0.06818135	-0.08747931
-0.17225751	-0.13141236	1.027456	0.24986334	-0.2851333	0.3066328	-1.1024483	-1.0929028	1.2956071	0.9732119	-0.9306619	1.24696	-0.35884807	-0.2767639	-0.56169987	-1.1510345
-0.19388887	-0.053356186	0.036974173	0.42440552	-0.32423854	0.36811396	-0.35960647	0.3488076	-0.14344512	-0.18988019	0.3044751	0.40565467	-0.60863096	-0.38948867	-0.4058112	0.23751393
0.9667836	-0.75463486	0.6908603	-0.24813046	-0.84137243	0.99000764	-0.5393279	0.4118066	-0.023785792	-0.5247813	0.5672514	0.84292805	-0.8261383	-0.9041548	-0.36440563	0.5032901
0.37583807	-0.40179655	0.704263	-0.22471173	-0.41744295	0.34398887	-0.5839275	-0.109204344	0.26659438	0.105077446	0.0076400344	0.54721993	-0.692268	-0.39932513	-0.41225863	-0.18378596
0.40820387	1.6748482	-1.2047373	-0.060414586	1.7652636	-1.3864499	1.1952351	-0.591685	0.6028648	-0.35518655	-0.3411384	-1.1586442	1.703819	1.5268013	1.5500115	-0.31633857
-0.65613645	0.070374034	0.015972828	1.0043304	-0.51042134	0.5804799	-0.54767764	0.090322725	0.05106542	0.19109122	-0.08021645	0.73918253	-0.5842854	-0.46515006	-0.7619602	0.0068874476
0.39733025	-0.021597488	0.077162325	-0.12082756	0.007670428	0.2067981	-0.13729712	0.07492106	0.034324747	-0.23576371	0.19231145	0.1613418	-0.19223176	-0.10615712	0.14763026	0.11768634
0.32251513	-0.014296522	0.30213425	-0.2028593	0.1006682	-0.07468593	-0.25804326	-0.19758365	0.28018227	0.11520217	-0.08678907	0.19018695	-0.14943945	-0.0056946483	-0.01748979	-0.19329536
-0.16507639	0.10924631	-0.060254198	0.3642299	-0.10713352	0.38697228	-0.24544895	-0.16399492	0.21967535	0.019933993	-0.051130135	0.39898875	-0.13574044	-0.2064651	-0.11155677	-0.08913541
0.66849506	0.40027094	-0.027188715	-0.94659495	1.0538638	-1.7588117	0.5161165	-0.3923301	0.3312197	0.056792703	-0.109672576	-1.158619	0.6318846	1.3458825	0.7826275	-0.3819165
-0.08111103	0.1880298	-0.4424672	0.12305534	0.09515517	-0.26654667	0.41991115	0.588588	-0.5924653	-0.52974516	0.55805796	-0.54501283	-0.06889796	0.21961066	0.2053315	0.51991475
0.35609496	-0.20212348	0.33553952	-0.7163873	-0.0062548798	-0.86398804	-0.21665761	0.34760264	-0.41613165	-0.12296381	0.5233505	-0.41231203	-0.76660705	0.64603436	-0.4529875	0.07597888
0.28747752	-0.21469621	0.1571881	-0.22915399	-0.062564984	0.022735812	-0.12121967	0.017015843	0.025198003	-0.084078506	0.11435308	0.058502447	-0.20844653	-0.08449449	0.0254509	-0.00077136396
0.30140984	-0.31068856	0.3757552	-0.11106845	-0.35505256	0.42482466	-0.33636287	0.007777511	0.07657043	-0.098443635	0.11631114	0.42171168	-0.35855845	-0.3866152	-0.19458374	0.08309502
-0.10434233	0.5177283	-0.30798307	0.17939204	0.46194988	-0.2807769	-0.0049441922	-0.40391794	0.36254397	0.23402204	-0.27674016	0.009350953	0.329413	0.45794836	0.20242585	-0.28343448
0.57165456	-0.13831495	0.34753573	-0.36112654	0.054286994	-0.015062998	-0.24153608	-0.30430743	0.35580665	0.06819491	-0.15042108	0.31178075	-0.080522545	-0.014316369	0.17242719	-0.2814618
1.4949278	-1.6309863	1.4428142	-2.227011	-1.3442762	-2.1363623	0.68433875	1.6069422	-1.8877405	-0.98912156	1.6012291	-2.0852993	-1.9243771	0.55094624	-0.8065793	1.2376375
0.5453961	-0.3481941	0.25267282	-0.3526048	-0.34166792	0.34955192	-0.06525319	0.25486094	-0.17799464	-0.35835248	0.45470384	0.15370509	-0.3129321	-0.32486457	0.0037476006	0.23874795
-0.2215448	0.1489017	0.06850244	0.15971884	0.11353202	-0.17977698	-0.18163137	-0.18652666	0.2175095	0.21016985	-0.18666965	0.078553796	0.015156657	0.20069705	0.0014386259	-0.22429982
0.44334352	-1.257166	1.5376478	-1.407784	-1.2157882	-1.5102178	-0.11434304	0.8771044	-1.0974048	-0.044251487	0.6407614	-1.1370533	-1.6562935	0.21039647	-1.2201767	0.41410175
-0.72178644	-0.098588355	1.109435	1.1548214	-0.5385878	0.55449593	-1.5436026	-0.94465256	1.1967218	1.1105409	-0.9598888	1.4641856	-0.7901341	-0.5594075	-1.5756536	-1.0412135
-0.26511732	0.33209676	-0.10578457	0.06251502	0.43209094	-0.6248238	-0.04867775	-0.3166378	0.2859322	0.30816677	-0.31858015	-0.195067	0.1847387	0.5452554	0.070609294	-0.4428265
0.08243155	-0.23229598	0.5518124	-0.24630149	-0.26550907	0.0800317	-0.38393652	-0.11224181	0.15582336	0.32344705	-0.17325535	0.24525087	-0.45417273	-0.10307483	-0.38153785	-0.27352318
-0.36477682	0.5626624	-0.47736192	0.21275057	0.56473726	-0.76143485	0.40307605	0.030010976	-0.11183185	-0.027594566	0.06046973	-0.6390721	0.47630152	0.683448	0.2935966	0.04563506
1.8450446	1.4425819	-0.2965718	-1.6346364	1.7287798	-1.713035	1.1879214	-1.6218445	1.7409323	0.3009623	-1.1648558	-1.2857058	1.4463851	1.5748762	1.750505	-1.6924574
-0.09139749	0.08398833	0.12538801	0.110127024	-0.09659656	0.081345685	-0.23989445	-0.12662308	0.21434006	0.15098874	-0.1332962	0.36264312	-0.10016813	-0.046947137	-0.06339035	-0.20437713
0.7910862	-0.7248266	1.0437449	-1.1143092	-0.22560403	-0.25925082	-0.23512504	0.08230159	-0.05372638	-0.049855366	0.22246197	-0.18983759	-0.47136375	0.019237833	-0.1312366	0.042310737
0.074954726	-0.1987253	0.23553488	0.42049915	-0.52962244	0.7760689	-0.5382871	0.052396256	0.25441048	-0.11126059	0.19788913	0.8246627	-0.54876304	-0.68500435	-0.42858806	0.08584687
0.019165548	-0.19051541	0.35280257	0.06272988	-0.26338196	0.34000596	-0.48012498	-0.23051561	0.33279502	0.212086	-0.109123304	0.5020932	-0.31917354	-0.2657639	-0.34460717	-0.21439552
0.3837483	-0.16510843	0.26362342	-0.3781082	-0.10599919	-0.08181711	-0.07810107	0.073694415	-0.08989918	-0.031542275	0.17931405	-0.0850868	-0.3054858	0.05237662	-0.039264068	0.04926633
0.26332808	-0.32191193	0.33801132	0.1330602	-0.4945617	0.7069084	-0.47186717	0.08818545	0.06357141	-0.14752826	0.18612541	0.7380808	-0.5492086	-0.64998186	-0.32156503	0.10969182
-0.29396617	0.10042714	-0.17848395	0.56206864	-0.2863893	0.47626668	-0.15977676	0.30429175	-0.20484474	-0.20786542	0.27878672	0.30947852	-0.3036821	-0.33479047	-0.30323255	0.24979283
-0.0345259	-0.30735773	0.22273485	0.07148773	-0.45515522	0.36172473	-0.28080326	0.24483337	-0.13550882	-0.0019715724	0.2180037	0.32997915	-0.51128113	-0.35151437	-0.49590608	0.16928451
-0.39403695	0.26051372	0.32519147	0.46348235	-0.020580245	0.2047207	-0.6999203	-0.6383302	0.6813373	0.6172189	-0.6254334	0.72976047	-0.17977218	-0.01361113	-0.4484139	-0.61190885
-0.007515125	-0.15912497	0.27727637	0.21782449	-0.34609166	0.5291925	-0.5019223	-0.112947725	0.2486719	0.17287862	-0.087623864	0.6189086	-0.48389956	-0.45755315	-0.34095743	-0.1518511
-1.511508	1.1728154	-1.1004891	1.4281619	0.9376652	-0.9447304	0.5513105	0.37161344	-0.4613611	-0.1693064	0.133988	-0.7048505	0.8670287	1.2263262	0.2123871	0.22667338
-1.5448949	0.9882493	-1.0898074	1.5278181	0.5969299	-0.50301456	0.57554287	0.5900709	-0.75769573	-0.30728924	0.30250594	-0.6251649	0.619226	0.7673572	-0.0031145394	0.49498245
-0.5645389	0.72410154	-0.91830957	0.7008695	0.57596743	-0.38675243	0.5895088	0.36125204	-0.41070223	-0.5536227	0.29237422	-0.587464	0.52116454	0.48648244	0.523828	0.5383707
0.43422103	0.29423323	0.01942522	-0.33412158	0.5598603	-0.2689702	-0.045458864	-0.59659594	0.7401987	0.18504499	-0.4056855	0.08282271	0.46368757	0.34391543	0.5460482	-0.48719242
0.6883517	-0.36108586	0.5949765	-0.7677023	-0.09436366	-0.10590043	-0.18563245	-0.19759226	0.2926663	0.02647179	0.04656158	0.0694631	-0.13362585	-0.03742955	0.08176046	-0.21331309
-0.032040134	-0.35688922	0.46119654	0.5081461	-0.6006657	0.7214314	-0.63641465	0.055632018	0.15839927	0.0860097	-0.0098371105	0.8085124	-0.7001049	-0.61683136	-0.6621949	-0.010872772
0.16023491	-0.5618691	0.5882194	-0.013933374	-0.71022964	0.662591	-0.5229911	0.24455446	-0.0381171	-0.10103284	0.22836287	0.6668015	-0.742207	-0.7290575	-0.5803798	0.20336999
1.5528463	1.0163635	-0.0054325713	-1.5026573	1.4488522	-1.4610848	0.83701515	-1.4575316	1.4854251	0.401845	-0.9869739	-0.9175633	1.202958	1.2955976	1.3976219	-1.5355264
-0.14143676	0.21888445	-0.253939	0.40743783	0.058588777	0.23636672	-0.08775948	0.09693418	0.074620716	-0.15881282	0.10551388	0.25056645	-0.0050551523	-0.11885395	0.061723854	0.12751918
0.12800187	0.3002879	-0.37549892	-0.04230239	0.43063483	-0.28134128	0.33004516	-0.01938202	0.018059533	-0.21215469	0.059456013	-0.3958789	0.38756633	0.39952514	0.5098111	0.040801503
-0.96452415	0.3467064	-0.42910695	0.6848517	-0.11552669	-0.37187046	0.17938635	0.6201564	-0.72266454	-0.21661559	0.40365416	-0.409256	-0.35475355	0.27795613	-0.40884376	0.3701436
1.5013993	1.2144052	-0.55559886	-1.2839513	1.5475096	-1.4170712	1.0881625	-1.299269	1.3734353	0.06653008	-0.8388152	-1.1655754	1.3075691	1.2991636	1.5278804	-1.3599479
-0.25979376	0.37098017	-0.40930188	0.44640523	0.2310661	0.10411223	-0.0034473832	-0.11501371	0.06413325	-0.01733105	-0.01975012	0.1154515	0.22558206	0.05457014	0.18049757	-0.031815562
1.2840006	-1.0245827	1.1099118	-0.22358921	-1.1267743	1.3265107	-0.9720245	0.4704463	0.20287125	-0.6173384	0.81309986	1.2014673	-1.17465	-1.2305822	-0.6985568	0.6491659
0.72498727	-1.0594031	0.78738844	-1.4868864	-0.7108336	-1.6337712	0.6118382	1.2360855	-1.4738796	-0.655529	1.0630623	-1.6044569	-1.1986368	0.6138921	-0.3775587	0.86658144
-1.2504766	0.36674085	0.46385348	1.6611356	-0.37975293	0.43867275	-1.0589051	-0.8496788	0.92208433	0.9674615	-0.9197306	1.117785	-0.40540254	-0.2522965	-1.0792195	-0.840286
0.66315794	-0.6818843	0.6814781	-0.38340938	-0.86618537	0.57746214	-0.45474026	0.5415363	-0.36488715	-0.39732307	0.61751276	0.42011926	-0.9256765	-0.61374927	-0.64083743	0.46663544
0.8595585	-0.48433197	0.6338359	-0.31897464	-0.38666221	0.5905554	-0.5002779	-0.21772918	0.4011851	-0.099853165	0.06571066	0.70612025	-0.3215235	-0.5190479	-0.070918	-0.09412155
1.3312888	-0.47204274	0.7637124	-0.25691417	-0.38578114	0.9831369	-0.7352529	-0.27332303	0.9578674	-0.4340387	0.17095245	1.1799513	-0.5090617	-0.87265575	0.06121727	-0.0006843944
0.0036401046	-0.22795658	0.23295666	0.11975363	-0.3355919	0.33166954	-0.2848961	-0.0062756715	0.09567259	0.062201966	0.065205924	0.36028928	-0.40394682	-0.2696697	-0.3471683	0.025610764
-2.2330325	1.6084001	-1.4888641	2.2498736	1.0038781	-0.28130734	0.70213246	0.6903743	-0.7908579	-0.3440871	0.24226645	-0.7753612	1.1525844	1.0637538	0.24200602	0.6099293
-0.29961923	-0.036248684	0.07466601	-0.06941912	-0.096965864	-1.0552043	-0.05778272	0.18459861	-0.30597815	0.16744216	0.114797756	-0.56252974	-0.32455444	0.6305833	-0.37238568	0.018378247
-0.19147688	0.54876924	-0.43954635	0.4985942	0.34841877	-0.10475558	0.09248339	-0.061312545	0.018658437	-0.052522402	0.0071953735	0.019343218	0.10624331	0.2463472	0.25537986	0.043729242
0.2511729	0.5859949	-0.4471901	-0.008486335	0.6125936	-0.21468481	0.3721991	-0.34997877	0.39250088	-0.21770081	-0.058991868	-0.22055797	0.6046181	0.3601317	0.6729146	-0.10196015
0.5251983	-0.6475994	0.88645464	-0.23714027	-0.7724075	0.68703765	-0.80809706	0.0348742	0.114344865	0.06388503	0.1615127	0.7886552	-0.9169627	-0.7644408	-0.67947596	-0.029267162
-0.15305468	0.2196451	-0.0892804	0.33047962	0.025276879	0.11711312	-0.122842364	-0.07295439	0.116262816	0.016043257	-0.018188868	0.2669766	-0.046934053	-0.044856187	0.0003176335	-0.054834787
-0.0023784428	-0.08302388	0.40206614	-0.18044095	-0.15503873	-0.23848946	-0.43374297	-0.15314104	0.18108469	0.33519068	-0.16089289	0.15984397	-0.43959656	0.11345086	-0.48741543	-0.22897176
0.77643377	0.17783299	-0.110111736	-0.7756336	0.65560687	-0.6834669	0.5515466	-0.1594106	0.19952829	-0.3598757	0.11065685	-0.70193666	0.46882504	0.56359315	0.75390786	-0.06672716
-0.37905657	0.11305963	-0.16820964	0.60907465	-0.21420608	0.31840065	-0.20983972	0.108404405	-0.05886866	-0.05163896	0.078442685	0.34217334	-0.18125503	-0.2671056	-0.30619693	0.093656376
-0.21819516	0.370713	-0.1866426	0.09286985	0.35258391	-0.50741804	-0.00019522074	-0.11392508	0.11615088	0.17300433	-0.097264	-0.22705638	0.17686135	0.54481167	0.06909012	-0.18339796
-0.43457472	0.68007183	0.19213271	0.39194912	0.44400695	-0.4641459	-0.53994334	-0.97001153	1.0101298	0.75448656	-0.86815	0.4736073	0.34264725	0.49402514	-0.24460934	-0.94054204
1.4817114	0.59966135	0.17155735	-1.3750409	1.1318694	-1.0627654	0.5617272	-1.1312718	1.2078415	0.27627268	-0.7146507	-0.64860964	0.86355424	0.9931476	1.1986378	-1.2317683
0.5050802	-0.6080708	0.63605744	-0.25931466	-0.57396704	0.52826947	-0.41062284	0.030759646	0.17178006	-0.0007067696	0.07223294	0.5476535	-0.5592774	-0.5137664	-0.30562812	-0.017689295
0.4467348	-0.7752019	0.6670299	-0.10237149	-1.0342977	0.91278166	-0.58641815	0.47687545	-0.30487764	-0.29604378	0.5575344	0.67151964	-0.98576474	-0.99639684	-0.75443155	0.42427045
0.9019249	0.8827823	-0.7431261	-0.6528856	1.2633867	-0.9340329	1.098417	-0.6611658	0.67549086	-0.49531442	-0.21771356	-0.9182727	1.1331635	1.0344228	1.3863639	-0.40188962
-0.53550494	0.64696753	-0.86439705	0.7027908	0.49886632	-0.12983249	0.74427736	0.5547071	-0.575231	-0.7418715	0.5480531	-0.5525302	0.42342308	0.2545775	0.6208572	0.72969055
0.1229439	-0.17088082	-0.011813069	0.06785217	-0.31694573	0.45062038	-0.032158904	0.26160225	-0.19243734	-0.3647484	0.35938534	0.27445608	-0.22059828	-0.41916984	-0.084395446	0.39379525
-0.6129263	0.72608435	-0.5699382	0.6199478	0.5460388	-0.56127083	0.1934311	-0.032940686	-0.03813833	0.094867416	-0.062021516	-0.39111865	0.4984039	0.7247108	0.14855096	-0.049373195
-0.24196771	0.46613836	-0.4523945	0.36388683	0.28491125	-0.110233076	0.1263936	-0.045841057	0.043350186	-0.10961015	0.0030460511	-0.048215535	0.28140542	0.22294389	0.27298656	0.0681239
-1.411378	0.9525583	1.0326451	1.357569	-0.010352284	-0.8617235	-1.3025464	-1.3461832	1.3923076	1.3809104	-1.3386767	1.3225185	-0.574288	0.95348954	-1.3340883	-1.460607
1.2308666	-0.5928617	0.89489436	-1.2264636	0.06605442	-0.1296442	-0.12229379	-0.21351357	0.32530597	-0.0476699	0.12855023	0.05020288	-0.17306718	0.019321067	0.3243182	-0.28346023
-0.6262332	0.20169364	-0.20020463	0.92045796	-0.29753074	0.6442643	-0.28550193	0.07158479	0.14126578	0.023004891	-0.10242791	0.64951044	-0.19225052	-0.5327631	-0.3699975	0.09240597
-0.4947258	0.96600467	-1.0477498	0.5396894	0.8702143	-0.72165036	0.8969337	0.33756146	-0.48442554	-0.63707876	0.40003917	-1.0538161	0.73234284	0.8948934	0.77978444	0.45691344
-0.2924386	0.14025003	0.19223788	0.16713686	0.118112	-0.1817789	-0.36414862	-0.388072	0.50239277	0.43020067	-0.43493962	0.28440055	0.088331096	0.20008877	-0.20565161	-0.46442932
-0.6115454	-0.32872456	1.1097927	1.2020217	-0.8254465	0.78861547	-1.3406452	-0.81913644	1.1527977	0.9232557	-0.7557992	1.4591173	-0.9236537	-0.7731885	-1.4128476	-0.9037077
-0.22815548	0.026223768	0.16778958	0.35567567	-0.14475758	0.2127657	-0.37275454	-0.29655012	0.37529635	0.33605874	-0.26300278	0.36560544	-0.22839962	-0.11716107	-0.26457354	-0.25837168
0.04175448	-0.9732936	1.1313933	-0.8643988	-0.93368566	-1.268716	-0.15205489	0.5999057	-0.79406816	0.09951674	0.39618006	-0.8362471	-1.2592064	0.42111704	-0.9472178	0.22126874
0.17945814	0.4414763	-0.29018486	-0.01979595	0.5234172	-0.41513455	0.2558439	-0.1793414	0.21426894	-0.16578795	0.03041505	-0.31783286	0.44351104	0.39683622	0.5034004	-0.1485404
1.3174856	0.042219453	0.32142147	-1.295056	0.78525907	-0.95509017	0.39289635	-0.5931873	0.6206539	-0.1794738	-0.1943058	-0.71259063	0.4814342	0.81757486	1.0417266	-0.52852774
-0.037973292	-0.26574627	0.35992125	0.042815685	-0.34934214	0.31832552	-0.41793323	-0.045881197	0.07969309	0.07098839	-0.019825023	0.42051592	-0.45847654	-0.37768167	-0.4081662	-0.10369067
-0.036536917	-0.24621947	0.1350092	0.03960312	-0.36003917	0.24543071	-0.21905008	0.3101315	-0.3068761	-0.068916604	0.30684724	0.12205481	-0.50336325	-0.2139631	-0.34412318	0.25833726
0.18011959	0.2874345	-0.0027014522	-0.13352066	0.34395936	-0.22359726	-0.10130244	-0.29929656	0.40642488	0.15354382	-0.14939263	0.021442126	0.13343923	0.32203206	0.24937192	-0.27181643
0.9383678	0.88777316	-0.5801488	-0.7904013	1.3677473	-1.1289943	0.91009104	-0.6046851	0.6204253	-0.42904806	-0.15620925	-1.0020012	1.1279058	1.1452351	1.4155812	-0.36166215
1.1636997	-0.68903285	0.7937169	-0.45441455	-0.7093177	0.74881756	-0.54758805	0.32669464	-0.038607243	-0.4577764	0.5291043	0.66961575	-0.6540126	-0.7390087	-0.38647708	0.41841245
-0.29591012	0.27187058	-0.40042317	0.43051407	0.13443662	0.1651065	0.072881624	0.17407717	-0.09080979	-0.2532354	0.16859493	0.009731806	0.13212878	0.03048435	0.098614626	0.17860194
-0.20945592	0.10323624	-0.042562027	0.3261337	-0.12646462	0.15084967	-0.08182613	0.13324538	-0.14993386	-0.010222967	0.15101016	0.057265695	-0.254259	-0.088645786	-0.19423345	0.077620335
0.23210254	-0.15815595	0.29591087	-0.2068657	-0.20271586	0.22321978	-0.29197085	-0.08770636	0.18732564	0.1053674	-0.00916768	0.35406995	-0.2585645	-0.19948022	-0.19558196	-0.08054815
-1.520641	1.0087208	-1.0086243	1.4027772	0.72971475	-0.3809145	0.6626004	0.7051206	-0.7969237	-0.5410879	0.47928545	-0.55862004	0.58702564	0.7643565	0.32479644	0.72436494
-0.64476115	0.2687725	-0.48796517	0.41676793	0.028315198	-0.64125514	0.5676741	0.8907177	-1.0263715	-0.5480111	0.8014981	-0.88396114	-0.18491143	0.31472567	-0.11465651	0.75517917
-1.4013886	0.5435442	0.67318606	1.4691826	-0.59368575	0.16456208	-1.0872885	-0.9454896	1.0945798	1.1453465	-1.0824224	1.2623761	-0.63024783	0.06791614	-1.3337467	-1.0267925
0.7576029	-0.39348337	0.30229765	-0.54255784	-0.14090544	0.21946658	-0.1189764	0.17305337	-0.06364114	-0.489225	0.46541265	0.09821555	-0.18550266	-0.15693092	0.15578775	0.27850136
-1.4776527	1.4083941	-1.5636582	1.5766058	1.2279958	-0.45861137	1.3091383	1.0581248	-1.1094218	-1.2449353	0.90824425	-1.2531736	1.2996616	1.0077271	1.202152	1.2936683
-0.4969973	0.30320552	0.54519385	0.23837753	0.16651633	-0.7192383	-0.6840969	-0.7058578	0.6903816	0.7794783	-0.7098871	0.44901726	-0.12279349	0.53711575	-0.51279294	-0.786331
0.63668865	-0.34215966	0.40688622	-0.008311739	-0.48027775	0.654048	-0.4134411	0.1408936	0.17317227	-0.32111126	0.28232545	0.69172233	-0.57492924	-0.61958617	-0.17888197	0.23964141
-0.58603966	0.7696797	-0.45683268	0.747382	0.4437359	-0.11420801	-5.950808e-05	-0.2261583	0.30642214	0.14696106	-0.20948116	0.09305779	0.3290052	0.30086035	0.07017768	-0.17849837
0.46740478	-0.077325396	-0.014038985	-0.47421935	0.14643538	-0.5573221	0.35441655	0.34285358	-0.4168483	-0.3754845	0.47831875	-0.5969199	-0.1133694	0.3126046	0.23036136	0.36826497
0.19196363	-0.010978318	-0.32285798	0.2997011	-0.108711414	0.5697642	0.17481163	0.3982748	-0.21620397	-0.8520485	0.6140686	0.25899094	-0.028467985	-0.3476098	0.30070776	0.68385184
-0.8845373	0.74195397	-1.040269	1.0601395	0.3839652	0.11749358	0.72813535	0.651135	-0.69345087	-0.7763983	0.57826805	-0.4764286	0.5235791	0.2060706	0.4818154	0.7382826
1.460787	-0.32416525	1.0649468	-1.3339224	0.44768077	-0.23922375	-0.2942639	-1.0423809	1.1327218	0.378339	-0.50641084	0.30587053	0.22148696	0.21978918	0.62270695	-1.0461752
0.533309	-0.39577943	0.33684176	-0.1254989	-0.4176395	0.58911955	-0.29229578	0.1792808	0.04416489	-0.36209095	0.37195414	0.54699475	-0.35516295	-0.6041771	-0.07422623	0.24360716
-0.16881639	-0.000108931315	-0.22006762	0.19022352	-0.02697521	0.027356336	0.21934667	0.3577091	-0.41545948	-0.3849394	0.37832868	-0.26224437	-0.032814562	-0.07900926	0.013852121	0.45011798
-0.7420304	0.8262009	-0.21798351	0.62335545	0.39993268	-0.45084697	-0.27061492	-0.5303778	0.5557028	0.5228324	-0.65748286	0.22260872	0.37915546	0.64444774	-0.21348293	-0.5292668
0.061652146	-0.3314723	0.06639005	-0.3156756	-0.3709341	-0.32474586	0.14213108	0.59669167	-0.6547897	-0.30477855	0.62492585	-0.48209727	-0.52476525	0.047254972	-0.32852286	0.5659444
-0.15304783	0.46249378	-0.5463807	0.49009237	0.44725877	0.030146452	0.45874137	0.2658665	-0.30845982	-0.65916526	0.47579095	-0.25020733	0.3786977	0.15934704	0.6837433	0.46101162
-0.29061633	0.44287756	-0.347979	0.43689516	0.20367563	0.09011987	-0.094768055	-0.20350018	0.19819245	0.097615294	-0.1952729	0.19427072	0.2019335	0.05791703	0.07088359	-0.15556787
-1.2715919	0.91004604	0.050837126	1.2790968	0.1842593	-0.49495092	-0.63598186	-0.6393226	0.67989504	0.7803014	-0.8137393	0.54746294	0.06629254	0.71226823	-0.6819222	-0.7329095
0.60437113	0.019386292	0.21494642	-0.36875764	0.25893345	-0.03391782	-0.10653259	-0.42696276	0.5638667	0.08660073	-0.14005916	0.24569419	0.107423194	0.033691037	0.35878494	-0.3505498
-0.021473628	0.2006742	0.0075551015	0.007262335	0.2825702	-0.30771086	-0.08048791	-0.33036655	0.34463245	0.25004748	-0.293937	0.0437164	0.18511418	0.30454445	0.18026718	-0.3813996
-0.9466221	0.89654	-0.57384604	0.99476945	0.49331304	-0.35061944	-0.099929325	-0.2274002	0.23856393	0.3134691	-0.31344485	0.112319045	0.27573064	0.5276222	-0.19631104	-0.31368926
-1.1917249	0.2653311	1.2768008	0.7939513	-0.48291898	-0.84420484	-1.089072	-0.7039944	0.6979476	1.1183324	-0.9200513	0.8188724	-0.84428775	0.63617826	-1.4176198	-0.9276029
-0.6362372	0.2424465	-0.24234308	0.46930894	-0.0075521944	-0.37151146	0.11376721	0.20839342	-0.2913877	0.005643409	0.11087047	-0.28888902	-0.13199848	0.33087733	-0.28611022	0.09172727
-0.63300025	0.23313014	-0.15759288	0.4095563	-0.025908662	-0.6232481	0.00079676573	0.20186627	-0.3020059	0.17776732	0.017242683	-0.3886773	-0.13828422	0.41248012	-0.44368923	-0.008673188
0.42617795	-0.39043975	0.43057644	-0.4907696	-0.289097	0.0109356195	-0.07632407	0.2161503	-0.22328933	-0.17873846	0.28863284	0.0063867243	-0.44862315	-0.20264757	-0.111389875	0.19690076
-1.3586732	0.75295883	-0.80002016	1.2662765	0.3401326	-0.38458174	0.25922537	0.38760617	-0.44687456	-0.07603277	0.06253485	-0.40393695	0.3806867	0.6445422	-0.20654033	0.30994892
-1.3827367	0.90609354	0.77736104	1.360919	-0.2087162	-0.6331859	-1.0279838	-0.885907	1.0464196	1.0976111	-1.000557	0.9814613	-0.5661695	0.7306456	-1.1471663	-1.0113134
-0.2887404	0.6310423	0.22977453	0.16139251	0.53708416	-0.63726395	-0.49038386	-0.8454113	0.94363517	0.68459964	-0.77999324	0.34238175	0.43002975	0.62923086	-0.038658734	-0.8153161
-0.17472434	0.70934653	-0.72094625	0.26637122	0.50097823	-0.2751331	0.7220415	0.18898	-0.24027438	-0.6739202	0.3865682	-0.5952971	0.60938704	0.3788764	0.49237484	0.40834096
0.014073931	-0.40990037	0.30968404	-0.37619537	-0.4781942	-0.4652108	0.065917164	0.5646244	-0.6928608	-0.13532062	0.4286919	-0.5575062	-0.6982294	0.088251054	-0.4538097	0.42588764
0.50887215	-0.42895275	0.27034882	-0.5333304	-0.19591732	-0.024882397	0.051782504	0.29987964	-0.32176176	-0.29993156	0.40120724	-0.19017495	-0.32684532	-0.17560612	0.0368225	0.263222
-0.9332334	1.1075592	-1.2652898	0.98433846	0.95325416	-0.67034674	0.9691194	0.67185414	-0.81017846	-0.69764864	0.52094656	-1.032999	0.9913609	0.95139533	0.6695058	0.75268435
-0.0644636	0.5008242	-0.13613623	0.040459394	0.5597139	-0.47323117	-0.007550414	-0.57573456	0.6622613	0.38416734	-0.48375452	-0.03829806	0.47422263	0.61369324	0.32730195	-0.5427985
0.115351476	-0.29557878	0.6329068	-0.11958712	-0.33891585	0.1545886	-0.49168205	-0.15319918	0.21333478	0.21408996	-0.1427668	0.31556183	-0.4696637	-0.20772655	-0.475781	-0.23658948
-0.10960604	0.18615827	0.11572267	-0.011989751	0.22435421	-0.2966367	-0.13257644	-0.29107416	0.26428548	0.2701657	-0.23643309	-0.012375583	0.12846063	0.2660126	-0.045184832	-0.33383563
0.5171487	-0.39133736	0.3563687	-0.09195776	-0.33215123	0.62708646	-0.39079723	-0.07456957	0.29257154	-0.14030379	0.12780325	0.6021631	-0.414171	-0.59798044	-0.057732668	0.0029151614
1.6235615	-0.31049487	0.7816678	-0.9355117	0.030209266	0.5114476	-0.371389	-0.7357684	1.1925981	-0.24873443	-0.34018427	0.8669618	0.011306882	-0.42017388	0.47947088	-0.5739749
-0.08713877	0.3635692	-0.52769035	0.4460628	0.15422046	0.3196787	0.21999191	0.1121394	-0.013605997	-0.4568729	0.24720344	0.07433224	0.26360425	-0.17685741	0.3651055	0.27118346
0.22131303	0.04710344	0.13572079	-0.26489937	0.16127571	-0.2841967	-0.09309971	-0.12010529	0.17257072	0.13271269	-0.031604942	0.008678443	0.022815373	0.230317	0.13544235	-0.19343522
0.08937768	0.0141617255	-0.061849788	0.16473733	-0.109605804	0.30740005	-0.07283733	0.08557514	0.059648037	-0.21848595	0.19629155	0.2345782	-0.063503765	-0.19754936	0.13735637	0.16492347
0.32947922	-0.5503955	0.35668346	-0.25954062	-0.75576574	0.44578418	-0.19352587	0.66939044	-0.57081866	-0.45948553	0.67136514	0.20113896	-0.8216972	-0.6221942	-0.47023258	0.61638504
-0.8484806	0.83021885	-0.56246996	0.8837904	0.5709042	-0.40479589	0.04373715	-0.14562787	0.09784771	0.12203799	-0.18340684	-0.1544425	0.41349435	0.6137626	0.06390509	-0.14895077
-1.3050706	1.3419068	-1.4960527	1.3294302	0.9178708	-0.19799557	1.2441672	0.9836844	-1.0148263	-1.2350924	0.91186917	-1.2072502	1.1294997	0.73574543	0.7704658	1.2382014
-0.32007357	0.24951628	0.20276105	0.22352758	0.13373117	-0.44455516	-0.3751891	-0.31721723	0.2967944	0.55975497	-0.44300535	0.11396389	-0.059122253	0.34409848	-0.3458756	-0.49156302
0.669457	-0.4750628	0.8283904	-0.47847468	-0.3428352	0.36095712	-0.5703552	-0.19998945	0.45737067	0.16909035	-0.09958765	0.5701339	-0.46361977	-0.44755417	-0.18573986	-0.28834078
0.39881012	-0.40388563	0.21980153	0.13879769	-0.6327981	0.9187154	-0.2600529	0.41165894	-0.09023004	-0.43957257	0.4600343	0.5862823	-0.42285332	-0.77571213	-0.123043574	0.4547446
-0.09474256	0.022080624	-0.2647804	0.025923269	-0.078331105	-0.19141455	0.40651143	0.8523779	-0.90188223	-0.67194706	0.79419166	-0.5852788	-0.30273464	0.012226663	0.095271684	0.77663696
-0.08331992	0.283533	0.013523541	0.190147	0.2048511	0.036336984	-0.35688737	-0.5629485	0.6636949	0.44648504	-0.46194458	0.4632866	0.16696876	0.13423346	0.004577439	-0.5129075
-1.6098304	1.2677994	-1.0344405	1.6765912	0.59657264	-0.27970105	0.1748537	0.26194453	-0.26258442	0.07747877	-0.10783743	-0.2665435	0.67520857	0.88917756	-0.19800265	0.19284298
0.3690241	-0.21087426	0.13632557	0.24937114	-0.4320794	0.752976	-0.29301444	0.3046842	-0.0041444576	-0.45210224	0.41742396	0.63520676	-0.48763132	-0.6815169	-0.118393615	0.46141902
0.40410593	-0.13346545	-0.11682994	-0.2764905	0.0669722	0.019512923	0.24133429	0.3592884	-0.25499946	-0.67046666	0.5587961	-0.17245439	-0.107649915	-0.055720665	0.3399881	0.36690044
0.7603104	-0.71276987	0.828779	-0.36460608	-0.7470933	0.7460726	-0.5357401	0.15732886	0.11407655	-0.2260266	0.3198647	0.712695	-0.6748728	-0.69819176	-0.4571238	0.21910474
0.7074033	-0.17463066	0.18856724	-0.6563465	0.15221754	-0.23846042	0.16471817	-0.032459497	0.05956482	-0.27885026	0.2508593	-0.20325774	0.059710953	0.11546081	0.33690077	0.05373632
-1.5629053	0.8271451	1.1738889	1.5379332	-0.566267	-0.42696905	-1.3689449	-1.140613	1.3218523	1.3639414	-1.2554219	1.4380008	-0.90140486	0.57497424	-1.5317628	-1.330874
0.46512488	-0.87441814	1.0117998	0.24328767	-1.0883882	1.1026409	-1.0219527	0.25503168	0.26769322	-0.0112393685	0.2617557	1.1881818	-1.0432092	-1.1374233	-1.0747579	0.12345335
-0.054042764	0.030744284	0.48698723	0.043212794	0.022106353	-0.16056313	-0.4842424	-0.5320885	0.5373419	0.5834337	-0.5341481	0.40047616	-0.11852468	0.1953974	-0.25141752	-0.57293665
-0.29470065	0.022514774	-0.16008039	0.26394174	-0.2350096	0.00032052904	0.12889852	0.58029044	-0.5951016	-0.30426258	0.48456272	-0.22842143	-0.3201674	-0.12815623	-0.20457384	0.49722463
0.5494564	-0.52612835	0.6645415	0.06249415	-0.7047108	0.85888773	-0.6843448	0.057533737	0.27995643	-0.2012092	0.21486002	0.95278955	-0.6582661	-0.86094743	-0.48676544	0.16328646
0.2826672	-0.34447154	0.43780553	-0.17369342	-0.38885084	0.25093472	-0.2828504	0.12643777	0.00433755	-0.0175561	0.20463653	0.28235313	-0.5579833	-0.34164253	-0.22937189	0.014147211
-0.47601762	-0.16011627	-0.057245445	1.5793277	-0.8374564	1.4297662	-0.5893358	0.5449676	0.083733246	-0.65959716	0.4949901	1.1260958	-0.49697387	-1.1564392	-0.67317736	0.9674301
0.20712183	-0.3309926	0.35743117	-0.059383042	-0.47637367	0.43286556	-0.31484848	0.19167882	-0.040277094	-0.12954403	0.2878517	0.32513607	-0.5294677	-0.39864635	-0.3790145	0.20041585
0.36892498	0.71744967	-0.439511	-0.22615312	0.8192244	-0.6784893	0.47992322	-0.5659535	0.5245455	-0.040034056	-0.31482753	-0.45502657	0.7679598	0.7463499	0.71789217	-0.35823318
0.9323585	-0.361574	0.4696514	-0.06787652	-0.44156188	0.8807762	-0.5280393	-0.06013562	0.5191429	-0.49772328	0.34477654	0.953432	-0.5076523	-0.80604637	-0.12225802	0.19919094
1.3882622	0.5399744	-0.019713279	-1.195181	0.9563041	-1.073629	0.8502843	-0.86229277	0.9225135	-0.23726735	-0.3255892	-0.8601937	0.793672	0.8941205	1.1205846	-0.7955494
0.34963176	-0.4873937	0.5620771	-0.17665818	-0.48864132	0.4409501	-0.40439838	0.10637945	-0.0029219468	-0.031132394	0.15986554	0.4852004	-0.58875245	-0.5358708	-0.41241664	0.11829667
-0.14701886	-0.45198977	0.57624644	0.54856664	-0.7653757	0.95264524	-0.7269824	-0.04687679	0.28260145	0.27148336	-0.066843085	0.92466897	-0.6617457	-0.8085075	-0.83276075	-0.11862953
-0.10700592	0.017785674	-0.32208675	0.8684561	-0.35890296	0.90385956	-0.082187496	0.49685204	-0.11173472	-0.9360722	0.706599	0.7046874	-0.121695995	-0.74613225	0.02310044	0.83863956
-1.3566753	0.67147356	0.6608052	1.1592952	-0.041163795	-0.7519539	-1.1154146	-0.9745317	0.97570366	1.2242292	-1.1217365	0.8850108	-0.39480627	0.83560437	-1.247287	-1.0929428
-1.6871327	1.3628287	-1.5262475	1.6936759	1.2547972	-0.57296026	1.1871958	0.9690719	-1.1535898	-1.0607145	0.71450746	-1.0931313	1.2330972	1.2634647	1.1522033	1.2023889
-0.27560025	0.24738748	-0.22339633	0.058678187	0.14996333	-0.6024532	0.21075134	0.2801826	-0.3307575	-0.11118329	0.15881768	-0.48742616	0.0401847	0.53789556	0.07123525	0.15501003
0.58214164	0.09875076	0.7401968	-0.6254838	0.37665725	-0.50023603	-0.4142692	-0.73438877	0.86632586	0.5263351	-0.57269734	0.21764976	0.17573439	0.46255726	0.25566486	-0.81153125
-1.0457083	1.0920335	-0.8332827	1.1018571	0.71012914	-0.25721565	0.3025224	0.10116322	-0.112509675	-0.10389561	-0.021150893	-0.18016867	0.62733465	0.6049933	0.23892395	0.10696347
0.029918993	-0.05974615	-0.000678901	0.006161837	-0.06687801	0.14260451	-0.097449936	0.03228162	-0.010739232	-0.047966	0.05088674	0.21548891	-0.13428903	-0.18701556	-0.04522403	0.017512668
-1.1781844	0.8603687	-0.23013486	1.1495119	0.2079545	-0.37923124	-0.372392	-0.35641474	0.39023834	0.48785856	-0.57240987	0.29836342	0.1987609	0.5782452	-0.50084114	-0.3846123
-0.60250556	0.22833976	-0.31350607	0.75561845	-0.20037344	0.36731339	0.01877291	0.29898426	-0.26165348	-0.15766205	0.18625681	0.17929523	-0.13297877	-0.21553877	-0.22550721	0.32137465
0.26394203	-0.22060661	0.86930454	-0.6849888	0.1402883	-0.59232825	-0.3196016	-0.45649415	0.40643784	0.4653843	-0.38334894	-0.04337318	-0.1605713	0.48219517	-0.13775207	-0.5343477
-0.8043312	0.59678483	-0.2216211	0.57068497	0.46672982	-0.967165	-0.111295655	-0.13677253	0.09452049	0.3630758	-0.3099262	-0.2472953	0.24673417	0.8600036	-0.33091402	-0.28568906
0.25835052	-0.028654074	-0.24998777	-0.15959963	0.091092564	-0.08680898	0.44749966	0.34183145	-0.29514846	-0.48411003	0.48444605	-0.4196411	0.034127373	0.024946878	0.29386008	0.4150928
-0.18114142	0.10105144	-0.09806021	0.47961667	-0.12194314	0.4121808	-0.2124886	0.0020604122	0.046948746	-0.08459546	-0.03738296	0.34400228	-0.12550981	-0.25738674	-0.16163956	0.021001142
-0.92189336	0.8641994	-0.78548026	1.088758	0.6158049	-0.12759498	0.24771512	-0.098171934	0.029080015	0.04847351	-0.21375237	-0.08804939	0.6071004	0.36615613	0.1782534	0.0048772283
0.14824487	0.4924166	0.12137706	-0.23394662	0.57788366	-0.6616417	-0.1065533	-0.79379034	0.8019401	0.5144086	-0.6303231	-0.05260098	0.41774178	0.57732403	0.22943848	-0.767984
-0.56828076	-0.23989408	0.59302735	0.35913965	-0.53941023	0.11232332	-0.69825673	-0.36077243	0.3821184	0.61168295	-0.4183908	0.5835111	-0.54323584	-0.24065651	-0.8395082	-0.5108124
0.8656376	-0.7940661	1.0384972	0.37042782	-1.0298493	1.1336569	-0.941937	0.20838198	0.55374175	-0.15687345	0.37925613	1.2319804	-0.9233786	-1.1344272	-0.88218856	0.27675536
0.06703834	0.06053568	-0.28152937	0.08717098	0.016216334	0.19277027	0.21729302	0.31826207	-0.36460587	-0.53036577	0.45838994	-0.10751725	0.07004381	-0.18270697	0.22557029	0.4278307
0.12018503	-0.03777899	-0.21496622	0.28466287	-0.16851789	0.52035743	0.16910188	0.32332918	-0.15458459	-0.58073545	0.4298457	0.19672863	-0.039190274	-0.32178825	0.15937215	0.5485886
-0.10162064	-0.1486201	0.15088186	0.00058418844	-0.2712652	0.060455084	-0.085679375	0.037321635	-0.100706644	-0.016091123	0.028639331	0.055053204	-0.19226317	-0.15019658	-0.18352966	0.028283771
-0.06304656	0.7534737	-0.77099067	0.38469324	0.69368553	-0.14773735	0.6545037	-0.016810188	0.07698397	-0.52286434	0.14001337	-0.3297843	0.8027606	0.39302382	0.8780164	0.22891742
-0.26814476	0.22719978	0.33337367	0.12537645	0.15563868	-0.48570663	-0.3761712	-0.4274901	0.4927997	0.47507688	-0.4546309	0.14828193	0.114629894	0.47502986	-0.21526557	-0.5632634
0.08995603	0.015977502	0.122609235	-0.017551694	-0.022994947	-0.056592476	-0.1635825	-0.03376569	0.019214049	0.018847333	0.018465873	0.15668415	-0.24790773	-0.011490308	-0.029798888	-0.09834501
-0.22393562	-0.1893111	0.2801755	0.2672659	-0.39524078	0.22962014	-0.3227558	-0.061211776	0.11887636	0.27373964	-0.08952066	0.3688496	-0.35073105	-0.21498351	-0.47381827	-0.056162834
-0.2921746	0.053827327	0.22655997	0.25460356	-0.052301984	0.036268294	-0.42139181	-0.34669414	0.39839697	0.34523466	-0.3249126	0.3573366	-0.09396195	0.029068757	-0.2911522	-0.4067366
0.40787598	-0.7659423	0.6155967	-0.13724299	-0.87045586	0.6972927	-0.46140507	0.3931506	-0.23903842	-0.22674273	0.4279131	0.6131275	-0.80506295	-0.76362586	-0.6716319	0.40239853
-0.10394321	0.093254365	-0.100030504	0.11430552	-0.09514295	-0.019582482	0.019287452	0.14234531	-0.07068604	-0.090649575	0.11393132	0.059528667	-0.070874356	-0.006330257	-0.06804009	0.11367474
-0.44150212	0.41072154	-0.30431005	0.4356057	0.22055459	-0.28522637	0.082556576	0.14893165	-0.1449515	-0.06267198	0.11520587	-0.14602628	0.10358287	0.28356102	-0.027908627	0.1009963
0.26423714	-0.46681127	0.37685204	-0.13439292	-0.51376194	0.4134864	-0.1807059	0.28645486	-0.18564	-0.122663334	0.294116	0.2860157	-0.5102206	-0.45009983	-0.32609713	0.2740746
0.28522998	-0.017981783	-0.111546494	0.08320314	-0.024060491	0.27050862	-0.023481438	-0.06796896	0.10552084	-0.2304269	0.13350374	0.20028006	0.13208239	-0.18160242	0.20418754	0.08737517
-0.37843102	1.0976784	-1.008182	0.52956355	0.927817	-0.6247019	0.8688953	0.1702315	-0.29024556	-0.5944149	0.25173137	-0.95433617	1.0432664	0.8404805	0.88583875	0.41380176
0.7195979	-0.16853055	-0.095352046	-0.85811466	0.40364578	-0.98907804	0.7067822	0.31496906	-0.3288648	-0.5990361	0.5396054	-1.124009	0.1849785	0.63405895	0.6476654	0.37775618
-0.32321376	0.69794935	-0.41531238	0.30774045	0.5487064	-0.49118125	-0.007982667	-0.31725168	0.2999193	0.28765395	-0.31277585	-0.15309833	0.43534768	0.6165753	0.12942728	-0.28426063
-1.4761547	0.9285058	0.80046993	1.361612	-0.068973415	-0.7377309	-1.1657008	-1.0571263	1.1477362	1.221324	-1.1911924	1.0703082	-0.44036147	0.9180241	-1.2925973	-1.1596044
-0.35764912	0.45829394	0.24837172	0.30351734	0.3069408	-0.30004632	-0.4486528	-0.74061614	0.8397903	0.65982926	-0.65027153	0.41814843	0.20848116	0.42561105	-0.21415997	-0.7378277
0.11906656	0.32507372	-0.36351132	-0.0488306	0.3827531	-0.26669145	0.38152546	0.017798774	-0.10956455	-0.34302193	0.15261592	-0.32664853	0.3530938	0.3240406	0.50446784	0.15431164
0.09139778	-0.102402784	0.24957526	-0.08781383	-0.052234676	0.03107342	-0.25160754	-0.17637722	0.26334143	0.2002025	-0.116558574	0.16207966	-0.12107002	-0.01805572	-0.012216971	-0.2524754
0.17391476	-0.18289454	0.28480867	-0.117403485	-0.21201369	0.13510506	-0.18441764	0.06978537	0.013548586	-0.08674621	0.06375733	0.17340532	-0.20761782	-0.116864994	-0.11028333	0.06725909
0.025997788	0.21339434	0.06802553	-0.2720811	0.3051827	-0.6857063	0.0069997525	-0.21887137	0.15642317	0.27168477	-0.20676206	-0.2648101	0.05225015	0.594931	0.017263237	-0.336526
0.1789016	-0.18174107	0.45137513	-0.011963264	-0.20523034	0.40022957	-0.4660118	-0.36622494	0.54191846	0.29130325	-0.258447	0.59463024	-0.24253961	-0.34168085	-0.22652145	-0.3412487
-0.61930233	0.4222205	0.32070455	0.4704474	0.09439784	-0.40423715	-0.5381194	-0.5725935	0.58027107	0.5885955	-0.614473	0.493363	-0.001993352	0.40865207	-0.43776155	-0.5966982
-0.8942518	0.80739224	-0.80346686	0.84867436	0.48049504	-0.25654	0.40240005	0.2432848	-0.2937188	-0.20194201	0.10649412	-0.3621238	0.42538148	0.4551778	0.17252623	0.32408604
0.86849594	-0.64181787	0.6498996	-0.15171058	-0.5872061	0.89215475	-0.46213135	0.035527393	0.586603	-0.47040558	0.5520497	0.7757884	-0.5801454	-0.8043776	-0.28347054	0.34720024
-0.9320822	0.7040005	0.2849222	0.86663824	0.21308345	-0.61843187	-0.63827	-0.73515743	0.73138463	0.79881245	-0.7451219	0.5802409	-0.032299347	0.68860036	-0.6927119	-0.77369136
0.10262121	-0.27632678	0.6117869	-0.54862803	-0.11373415	-1.3579104	-0.14313684	0.2859447	-0.36540955	0.08916241	0.27193254	-0.66655207	-0.8045553	0.9594758	-0.6323174	-0.050042793
-0.25572455	0.2499831	-0.17357433	0.16983037	0.26777726	-0.7132423	0.14912492	0.05111112	-0.17945531	-0.0044225664	0.07774934	-0.37481076	0.060860775	0.55420244	0.0054658954	-0.01321755
-0.23357359	-0.037935764	0.0557912	0.13747963	-0.1779441	0.10268667	-0.088338785	0.11379419	-0.14239295	0.04586067	0.053556792	0.022826606	-0.22881396	-0.03340666	-0.20353527	0.049532752
-0.8778206	0.6781096	-0.91591054	0.8396728	0.29347384	-0.31537428	0.6287152	0.706943	-0.7967546	-0.5602104	0.555712	-0.8051937	0.42416945	0.49481532	0.16072907	0.7858431
0.9322666	-1.0796449	1.0433954	-1.3522474	-0.7693945	-0.5445904	0.30611327	1.0522954	-1.1757044	-0.6902932	1.0389185	-0.8753171	-1.2581214	-0.060825173	-0.5796924	0.84150004
0.77847755	-0.31143597	0.5517778	-0.5792149	0.040649544	0.13983022	-0.25374573	-0.30458143	0.40240318	0.09815976	-0.1385668	0.3204501	-0.027025098	-0.14876689	0.30117407	-0.3500037
0.43289632	-0.4265595	0.21634299	-0.16458154	-0.3688574	0.47628376	-0.07857732	0.5243904	-0.46176332	-0.54661345	0.6053133	0.12411008	-0.45557123	-0.4761885	-0.13040859	0.57592416
-0.1058732	-0.3390797	0.7368428	0.7609997	-0.6270166	0.8300777	-0.97189677	-0.47136894	0.78224605	0.45753673	-0.42360088	1.0817343	-0.6482555	-0.76777864	-0.8005846	-0.45361242
-0.39670226	0.37053606	-0.3991816	0.33418375	0.20998779	-0.37810194	0.32952702	0.26094133	-0.34437564	-0.22506115	0.21931967	-0.3979452	0.14157248	0.34559545	0.11311042	0.25436103
0.57216793	0.46642956	-0.35206002	-0.4304683	0.6254964	-0.45938215	0.56016326	-0.4003974	0.40554917	-0.3761849	-0.046576712	-0.45828164	0.57642275	0.4654037	0.7641868	-0.29217285
-1.2695538	0.7807341	-0.08364951	1.2604058	-0.06254907	-0.25130564	-0.50581586	-0.43962646	0.49127606	0.6704919	-0.5942428	0.5386713	-0.08910206	0.48110956	-0.78233296	-0.57753456
0.4205701	0.68250453	-0.30097306	-0.50545835	0.83925337	-0.89220804	0.4207822	-0.54664963	0.49887913	0.0053863586	-0.33026862	-0.5575311	0.81266534	0.8473628	0.6916462	-0.44843
0.0069926623	0.17779823	-0.007438447	0.22771458	0.028083406	0.28432938	-0.13498715	-0.21441941	0.37389842	0.05329216	-0.15703067	0.29454345	0.060329076	-0.088843435	0.108299196	-0.10137829
0.76163524	-0.3234907	0.10184291	-0.83081365	0.12464148	-0.51678073	0.4840265	0.34568682	-0.4171805	-0.5393737	0.5631042	-0.684108	-0.1396191	0.30671132	0.36908802	0.38184252
0.81756294	-0.7251101	0.6691076	-0.5485695	-0.623089	0.56008005	-0.31665653	0.42114303	-0.2430668	-0.36812723	0.5170877	0.45652238	-0.6573053	-0.6699436	-0.29061335	0.39127207
0.13842773	0.036951978	0.16218588	0.5273518	-0.25731984	0.80031896	-0.43222368	-0.067095295	0.29619125	-0.15332042	0.02371692	0.8542639	-0.37844953	-0.59810764	-0.14175013	0.062488593
-0.45483935	0.32362163	-0.42853034	0.5327192	0.1471903	0.04182788	0.12779416	0.31587678	-0.3049808	-0.19814084	0.17142677	-0.046205208	0.040269904	0.04421402	0.040962856	0.28910244
0.6310976	-0.48363987	0.41852263	-0.614901	-0.272316	0.040158316	0.092447795	0.36948904	-0.3075808	-0.39517617	0.46371728	-0.13108264	-0.3319086	-0.18764567	0.0013991791	0.29563168
0.37344557	0.8429657	-0.2723846	-0.29719076	1.0188309	-1.0050532	0.35444978	-0.7153258	0.6644236	0.22834308	-0.46129134	-0.4169537	0.80168235	1.026322	0.72894937	-0.5314119
-0.13300814	0.11443925	0.16920075	0.08895886	-0.005230804	0.039899543	-0.3525384	-0.29818758	0.3671329	0.23369963	-0.23870344	0.40964675	-0.09980054	-0.038793813	-0.18172567	-0.3226002
-0.55811995	0.7929155	-0.8726694	0.5677478	0.7980162	-0.645553	0.77760696	0.4943241	-0.6137029	-0.6739899	0.513468	-0.893618	0.72981983	0.76040345	0.8354888	0.61243445
0.34641212	-0.56541175	0.8654991	-0.12571774	-0.6658135	0.54689753	-0.64672357	0.10154429	0.019711122	0.095237404	0.17789432	0.6623339	-0.8424991	-0.61542326	-0.6439775	0.06991173
1.1413102	-0.93852437	1.0876217	0.7744998	-1.2110165	1.4226202	-1.0572644	0.2346707	1.0468416	-0.3712223	0.6460252	1.4391481	-1.0521466	-1.3140824	-0.9685632	0.51399666
0.68342227	0.958612	-0.32766783	-0.55492955	1.034961	-0.76587814	0.6509865	-0.7164272	0.7255732	-0.04705404	-0.5097442	-0.5973431	0.9379643	0.83780295	0.91223127	-0.6299021
-0.7705562	0.604599	0.5153304	0.698865	-0.054206688	-0.43052304	-0.6434061	-0.73953414	0.779762	0.7467293	-0.7289829	0.5828343	-0.097872734	0.5528118	-0.5996668	-0.8307503
-0.05281906	0.23270719	-0.2589976	0.15421079	0.12941842	-0.05045565	0.22210345	0.162348	-0.116413146	-0.22924265	0.17161438	-0.2280525	0.09548826	0.09159481	0.2205242	0.16069756
0.3509893	-0.07882122	-0.1542373	-0.085468404	-0.020796176	0.10977108	0.27766073	0.43818554	-0.38432252	-0.68683785	0.6596119	-0.1337692	-0.12741587	-0.16222337	0.34229222	0.5848285
0.173371	0.7649254	-0.49845886	-0.018071106	0.9003068	-0.8462319	0.5233272	-0.2176675	0.15129335	-0.14945658	-0.025223538	-0.65562946	0.70860773	0.87105554	0.63073546	-0.093405075
0.12041262	0.25435334	-0.09211349	-0.13683507	0.37709323	-0.5267246	0.038005684	-0.18323027	0.12623285	0.1035648	-0.06434711	-0.32176474	0.118326575	0.46885422	0.2285318	-0.14672366
-0.20135279	0.2706449	-0.17651048	0.31644297	0.07157854	0.050365776	-0.07897041	-0.08353905	0.077196345	-0.048273444	-0.001961219	0.07502563	0.12253808	0.0022067172	0.056125693	0.023772504
-0.009503634	-0.15801917	-0.026477162	-0.034196243	-0.2320178	0.15254731	0.11889868	0.42490757	-0.47921836	-0.36561865	0.42122006	-0.085690185	-0.27858138	-0.21434975	-0.09761985	0.38896835
-1.1729723	1.018779	-0.98409545	1.1477592	0.959479	-0.48279014	0.76560426	0.56695044	-0.6545876	-0.5820434	0.46396044	-0.66709715	0.8255641	0.822186	0.72891605	0.7062342
0.43811715	0.13608915	-0.19020975	-0.5042501	0.38252613	-0.7894658	0.65394336	0.04752725	-0.1898095	-0.38165894	0.302325	-0.9436219	0.28912252	0.5962976	0.530084	0.16304098
0.3296061	0.44059452	-0.23220666	-0.25369433	0.68569523	-0.6268676	0.2021427	-0.40519235	0.48556155	0.1616838	-0.30643085	-0.2799044	0.56000316	0.62178916	0.5632905	-0.3602981
0.14871235	-0.34096187	0.34593225	0.033898905	-0.44238886	0.4521799	-0.3063215	0.18950903	-0.051608507	-0.10873135	0.19191161	0.45202485	-0.4459157	-0.45798516	-0.28299093	0.21408568
1.3739237	0.39849907	0.24080957	-1.3556175	1.0020179	-1.0214329	0.75432086	-0.94131285	0.93556523	0.0019822507	-0.50894177	-0.85462666	0.77179986	0.8438599	1.0640436	-0.95978844
-1.4198489	0.96094984	-1.117883	1.3171481	0.74385583	-0.31906876	0.85180336	0.759591	-0.88528055	-0.6878977	0.5341183	-0.82440937	0.8271243	0.79196155	0.5566929	0.80958265
0.57520044	-0.43507895	0.3980304	-0.43320006	-0.3200297	0.37663254	-0.22845747	0.07040584	0.020955708	-0.21961978	0.29754204	0.2933067	-0.30859944	-0.37978175	0.02984948	0.14024289
0.91566706	0.8473436	-0.29114345	-0.8110415	1.0569429	-0.96926373	0.65211886	-0.9544583	0.9927578	0.16043177	-0.6101284	-0.71880454	0.9448813	0.98106325	0.99479276	-0.90414006
-0.38300973	0.29997814	-0.26805463	0.4744538	0.08608382	0.08102069	0.04444833	0.12266576	-0.053127524	-0.13923053	0.14502019	0.09768256	0.041413646	0.016893877	-0.05158358	0.13921672
-0.27694842	0.10115115	-0.22900966	0.34472203	-0.054022368	0.19032548	0.020991731	0.21169563	-0.2471663	-0.18836464	0.17007941	0.033055265	-0.14844805	-0.13543144	-0.1048156	0.20554718
-1.4663248	1.22831	-1.3801361	1.4998374	1.1680946	-0.64251494	1.072627	0.7819234	-0.9523616	-0.8767308	0.6225028	-0.98674864	1.217907	1.0965849	1.0033615	1.02129
-0.1829737	-0.17002001	0.15920557	0.4494113	-0.41602713	0.56995326	-0.39328673	0.041714244	0.082331136	0.023421282	0.017863257	0.50667995	-0.34794536	-0.5036758	-0.38741177	0.08285843
-0.12714425	0.123495	0.17152649	-0.09775138	0.15694056	-0.54090947	-0.21608594	-0.38482925	0.33804566	0.4381226	-0.3655905	-0.0027246368	0.036633417	0.40938488	-0.076507255	-0.45893833
0.064828865	0.3526286	-0.24563672	0.024080202	0.3818341	-0.19830012	0.22564396	-0.18835628	0.16993307	-0.07648883	-0.017505093	-0.19710085	0.33212584	0.29087317	0.35692874	-0.110500395
-0.35326722	0.4156298	-0.46695423	0.30520222	0.3303725	-0.46526492	0.4819351	0.44314715	-0.4855601	-0.42955306	0.39744112	-0.55763686	0.18004665	0.37392864	0.2913773	0.38085806
-1.5019834	0.90023947	-0.7460151	1.4983145	0.4783236	-0.23545657	0.14355393	0.1496967	-0.2154247	-0.014437159	-0.06579895	-0.1834116	0.48343736	0.7786899	-0.20309801	0.07536226
0.056437895	-0.20080188	0.0381942	-0.101064175	-0.21772572	0.041238833	0.065480016	0.40397668	-0.4020406	-0.330971	0.35565516	-0.21061696	-0.24665703	-0.12856853	-0.093424104	0.34201133
-1.1675935	0.7717864	0.6744035	1.1872624	0.06256654	-0.6117451	-0.9214057	-0.8620935	0.88064116	0.98980135	-0.9254865	0.8322553	-0.43055555	0.79539716	-0.9880625	-0.9267183
1.1434432	-0.3081231	0.40037605	-1.0668864	0.2636012	-0.3857249	0.24808078	-0.09012582	0.12890337	-0.42217493	0.3498322	-0.3534936	0.048999563	0.23880923	0.5164915	-0.026442884
0.2036279	0.10944419	-0.028112555	-0.08178593	0.07450124	0.045064926	0.057891537	-0.10435186	0.098276064	-0.09526356	0.06940293	0.035469968	0.038708754	0.028335636	0.169136	0.029009996
0.68746674	0.2834235	-0.085617796	-0.43973675	0.38982496	-0.15074235	0.2267928	-0.41421118	0.561318	-0.1288711	-0.16240895	0.01765884	0.39607257	0.14335899	0.65356594	-0.2817798
0.7905064	-0.82081896	0.59244096	-1.1319952	-0.5242913	-0.7641014	0.28810948	0.83586854	-0.8994688	-0.47615334	0.75650585	-0.8046952	-0.9912799	0.3102079	-0.16361247	0.6526502
-0.40194276	0.31866273	-0.3553871	0.39596272	0.12661119	-0.13893984	0.1529627	0.29018024	-0.36521533	-0.19190088	0.19294085	-0.2447077	0.028912315	0.2232587	0.002475279	0.2905396
-0.30523032	0.17191304	-0.12722273	0.26203012	0.08370912	-0.18761253	-0.056117017	-0.008250065	-0.04355062	0.05092239	-0.015461064	-0.10163822	-0.037923533	0.216454	-0.09185116	-0.027324248
-0.22462447	0.39423895	-0.19989221	0.13524032	0.41380233	-0.4860905	0.074175395	-0.20424186	0.16170609	0.120341755	-0.17355478	-0.14736336	0.23454401	0.48889643	0.13249125	-0.2670936
-0.13962556	0.7349846	-0.65687495	0.25734958	0.94484705	-0.7190862	0.6041125	0.006597326	-0.055688642	-0.34887916	0.13078941	-0.6085104	0.79060894	0.7992155	0.7736298	0.07667026
-0.75840825	0.3872787	-0.4971483	0.84750736	-0.06287155	0.22630942	0.13499819	0.37422305	-0.3141267	-0.22095375	0.27407625	0.019141601	-0.006362477	-0.10207577	-0.24276863	0.43110028
0.7266901	0.23361588	-0.17978711	-0.8615403	0.74684334	-1.1081886	0.68983555	-0.1822551	0.02792855	-0.21554995	0.05700683	-1.0862269	0.5606999	0.95234877	0.7821802	-0.08557519
0.12556836	-0.22351798	0.4462644	-0.08829676	-0.23777345	0.27453908	-0.36621237	-0.2587407	0.35568935	0.22732458	-0.22121316	0.4185381	-0.2188024	-0.27145022	-0.2377555	-0.326964
-0.5011328	0.41198838	-0.02545204	0.37813696	0.19655766	-0.46919987	-0.22917192	-0.37863293	0.38248178	0.4063977	-0.3894615	0.04884703	0.21507356	0.51490426	-0.23780218	-0.4667157
0.84587127	-0.3489159	0.4109609	-0.77743596	0.07400229	-0.035829205	-0.047317408	-0.19801542	0.23254347	-0.18832937	0.12305417	-0.039244365	-0.032894883	0.0045991475	0.31480598	-0.10644699
-0.5982361	0.20433307	0.008140916	0.7646895	-0.1998361	0.26687077	-0.4168467	-0.19859788	0.28516448	0.34642485	-0.33269835	0.54028124	-0.14261164	-0.19741839	-0.443249	-0.25148138
-0.8820076	0.41222626	-0.51768154	0.90416896	0.06320538	0.05584372	0.20577186	0.40524632	-0.4020135	-0.30929595	0.29093048	-0.16667815	0.03703402	0.01981248	-0.15109324	0.3875835
-0.14584069	0.73956615	-0.24906786	0.26291957	0.6954562	-0.49014202	-0.1391321	-0.7171492	0.7801977	0.47015426	-0.672927	0.15035364	0.5847752	0.6208798	0.23194562	-0.6634729
0.5442221	-0.3188859	0.285216	-0.23789133	-0.2797271	0.50503767	-0.26502544	0.10663025	0.09857931	-0.4294537	0.3307985	0.4381504	-0.29344454	-0.4906931	0.064410545	0.14784116
0.49655187	0.20508711	0.015846409	-0.38093013	0.37377763	-0.2393561	0.018901104	-0.45589504	0.49264804	-0.02532184	-0.22952482	-0.015909938	0.2651161	0.28375077	0.40124652	-0.32402882
1.4136838	-0.19643645	0.75531244	-0.907317	0.13421947	0.30494	-0.45144305	-0.8771818	1.1898125	0.081319444	-0.53715265	0.7674313	0.05742155	-0.28562632	0.51704395	-0.7326253
-0.24840163	0.35757282	-0.34592125	0.3325292	0.22896297	-0.0041830055	0.12844263	0.06592025	-0.024658471	-0.05794217	0.036680486	-0.07150987	0.1866757	0.11824487	0.1521746	0.11124504
-0.1205915	0.32186016	-0.040788777	0.061343737	0.31025222	-0.33269507	-0.115398124	-0.26821417	0.35391703	0.20645589	-0.31371084	0.057001904	0.16028601	0.37382525	0.10171473	-0.28518587
0.5848035	-0.23922707	0.24999799	-0.46313995	-0.14195779	-0.014034246	0.00017604434	0.13017213	-0.07900266	-0.21790387	0.29068127	0.012579056	-0.19307625	-0.063597076	0.12353962	0.14055681
-0.11630888	0.72680676	-0.8478277	0.29391485	0.74068654	-0.40791914	0.8503545	0.33865857	-0.36343056	-0.8394802	0.6122647	-0.75313926	0.70262253	0.56412727	0.8933089	0.6097305
0.5382405	0.29664385	-0.14631808	-0.586079	0.65670764	-0.7833074	0.3540294	-0.37614635	0.37904012	0.045893945	-0.14873737	-0.55442566	0.54406476	0.66607344	0.62565106	-0.35240147
0.50476605	0.17191094	0.44491765	-0.42022482	0.40619364	-0.31748125	-0.18554893	-0.74839836	0.8701042	0.43144938	-0.54581314	0.1532004	0.23351428	0.3060837	0.23612557	-0.7541711
1.3111656	0.78108144	0.031239666	-1.2954445	1.249118	-1.1211863	0.6832514	-1.206127	1.3004482	0.38446844	-0.8681403	-0.756593	1.058539	1.0773376	1.213396	-1.1907194
-0.41956237	0.70842713	-0.7742881	0.48595253	0.7045638	-0.5376452	0.7669875	0.21332061	-0.37869135	-0.47752267	0.27305284	-0.8042933	0.7196692	0.6668916	0.6870655	0.3660829
0.86950576	-0.88564646	0.8870335	-0.0104827965	-1.1523819	1.2505229	-0.79798937	0.5405804	0.029466907	-0.520167	0.6369261	1.1069617	-1.0012202	-1.2172259	-0.7513363	0.69609946
0.5912471	0.27045155	-0.2786813	-0.4671886	0.58177936	-0.5565229	0.5091372	-0.24245332	0.18179567	-0.21328601	0.07659254	-0.48860294	0.5014493	0.48592058	0.6976788	-0.11495857
0.021379948	-0.064796284	0.30464825	-0.0055969795	-0.12631749	-0.051969647	-0.27085513	-0.085940756	0.109559454	0.17741509	-0.103076614	0.207104	-0.32252824	-0.060761705	-0.30797458	-0.20396507
-0.78278726	0.76533383	-0.27069074	0.60347706	0.59826744	-0.9901589	-0.2762495	-0.4883672	0.37752762	0.6430219	-0.572505	-0.17876421	0.29404604	1.0278463	-0.32699275	-0.5855995
1.2838125	0.7023649	0.3490238	-1.1302512	1.0330844	-1.0072107	0.607065	-1.1051607	1.1176258	0.38332042	-0.78265446	-0.6882245	0.8462514	0.8003405	0.9647309	-1.178568
-0.3063433	0.31231424	-0.47896355	0.3530404	0.2599754	-0.1448828	0.61491805	0.38772172	-0.49552214	-0.73277026	0.50723827	-0.5652832	0.1673602	0.24599537	0.34228936	0.50941724
-0.4401418	0.33749396	-0.007278364	0.41198552	0.11526922	-0.13336304	-0.22978052	-0.32346612	0.36527282	0.41326588	-0.3695038	0.2165302	0.10424504	0.165043	-0.20558265	-0.35305247
0.6342277	-0.71665585	0.7176595	0.42016897	-0.87742096	1.1432136	-0.9146651	0.0895345	0.64466596	-0.06913213	0.1485245	1.251539	-0.84069955	-1.1449238	-0.8004469	0.14501737
-1.0564182	0.7829309	-0.9794105	1.0375377	0.5024558	-0.15118457	0.6651818	0.64935595	-0.76433784	-0.6787909	0.5412018	-0.6018451	0.6759047	0.39029935	0.43780035	0.7008447
0.3091385	0.21557434	-0.1763947	0.03297224	0.14391935	0.12626763	0.0429619	0.024109794	0.095292605	-0.32302344	0.24468583	0.10925909	0.053625487	-0.043966375	0.34913617	0.1593241
0.1628772	-0.2695921	0.17332232	0.28781235	-0.4332249	0.7326534	-0.34438163	0.151306	0.11311097	-0.18949917	0.17312023	0.6279229	-0.40652013	-0.563716	-0.2504347	0.1875349
-0.02118343	-0.11709489	-0.05457536	0.3032409	-0.3605888	0.54194033	-0.026955111	0.39708793	-0.26093554	-0.44797012	0.45156407	0.29834965	-0.30525628	-0.51956546	-0.18942237	0.42156252
-0.51903814	0.30576667	-0.17468366	0.38128135	0.13774285	-0.3007904	-0.052106958	-0.009912402	-0.08385245	0.15929163	-0.12912223	-0.17018677	0.046224385	0.32782713	-0.20326973	-0.09661014
-0.4099507	0.23341407	-0.48772767	0.27650547	0.097461194	-0.13969828	0.32258707	0.31677914	-0.40354046	-0.2956353	0.34257445	-0.46931285	0.13070403	0.22716272	0.07265895	0.3051637
0.10575783	0.15917274	-0.1919103	0.016669465	0.15641116	0.0037918154	0.20907952	0.0450782	0.012665322	-0.29744196	0.16375497	-0.095978	0.10958954	0.056665804	0.28567782	0.12876806
-0.07936554	0.4776828	-0.11228771	0.035288215	0.549046	-0.59710336	-0.019900296	-0.3886289	0.3358036	0.25900152	-0.28094518	-0.14485121	0.34983152	0.59419096	0.22464594	-0.38049704
0.64319074	-0.56057936	0.6678993	-0.65481216	-0.4262736	0.09510569	-0.25810677	0.14748691	-0.0975558	-0.078745954	0.25493795	0.12721235	-0.56417406	-0.255184	-0.29786247	0.076968916
0.29951185	-0.29379225	0.63564134	0.04995065	-0.3672677	0.5171821	-0.67276853	-0.3387723	0.62427545	0.2419217	-0.2961468	0.7727552	-0.41968438	-0.517492	-0.32580534	-0.40653583
-0.35434964	0.8839952	-0.22686093	0.27327198	0.6042028	-0.7347416	-0.15806757	-0.6962472	0.7449755	0.4815236	-0.63380796	0.13056909	0.50893223	0.83816344	0.09611431	-0.70893925
-0.1218068	0.13661952	-0.11514674	0.25000125	-0.039209966	0.10569366	-0.04415294	0.13930273	-0.011058638	-0.13180958	0.10922423	0.12440122	-0.10300044	-0.05683571	-0.005953568	0.12341266
0.92050385	-1.0602505	0.71072835	-1.2716382	-0.82881606	-1.2156069	0.42359853	0.9754547	-1.2131917	-0.65472335	0.9530067	-1.1471535	-1.0352976	0.13780746	-0.43333367	0.8161062
0.17032275	0.71350753	-0.3879031	-0.09664175	0.66061854	-0.536583	0.20921	-0.40140027	0.4409042	0.07942164	-0.3182752	-0.22956882	0.6789582	0.5435071	0.5846823	-0.29921094
-0.48682338	0.75093365	-0.821542	0.47868052	0.8466398	-0.7143847	0.6650314	0.18619189	-0.29365322	-0.39592388	0.22866817	-0.8045504	0.7453316	0.8293074	0.6441544	0.20789035
0.8060262	0.26370713	0.091940425	-0.7437572	0.6321388	-0.6503514	0.1440761	-0.47736228	0.5268046	0.13016136	-0.26753676	-0.30060118	0.3524499	0.563362	0.5427312	-0.5282202
0.12092295	-0.03546192	-0.02276314	-0.038692124	-0.09979845	0.0732153	-0.0027915102	0.20734899	-0.18212783	-0.22102357	0.30578956	0.03924187	-0.25548697	-0.12574458	-0.0530043	0.19512795
0.1796114	-0.042766035	-0.034905054	0.27061632	-0.30513662	0.5774882	-0.20684259	0.21319506	-0.028371206	-0.3159395	0.28120738	0.46244094	-0.19594489	-0.39925936	-0.14478303	0.3522223
-0.38124973	0.2862975	-0.25384438	0.17582063	0.25491786	-0.4230499	0.07132613	-0.10305227	0.041216142	0.16839448	-0.17552838	-0.30131972	0.15611093	0.37487093	-0.022594582	-0.15129913
1.2416394	0.6417051	0.18575759	-1.1120552	0.9824176	-0.9571181	0.7240565	-0.9732967	1.0428993	0.0826867	-0.650564	-0.7991654	0.81163144	0.84373105	0.92536294	-1.0783532
0.025603559	0.24361911	-0.30321074	0.23427542	0.080162376	0.22905046	0.13094144	-0.044271912	0.17015828	-0.3053598	0.10562401	0.26127335	0.24140288	-0.119710356	0.28666326	0.14232792
-0.006357925	-0.18786898	0.25918105	0.19749172	-0.34175584	0.39201987	-0.38098282	-0.034349594	0.17312692	-0.025874093	-0.028421111	0.5263566	-0.26763695	-0.3526876	-0.28143513	-0.049367793
-0.38208076	0.35719764	-0.14640932	0.3155279	0.18360287	-0.3474501	-0.15475433	-0.23048382	0.252304	0.30706245	-0.26265714	0.014760707	0.16140655	0.37701234	-0.20552282	-0.28692818
-0.12313846	0.3382344	-0.1475486	0.22855799	0.24629967	-0.17078418	-0.058424067	-0.19782558	0.21766193	0.22665487	-0.25935638	-0.03183342	0.19854227	0.29086977	0.047245823	-0.23076671
0.56875926	-0.24186727	0.47754386	-0.25522614	-0.17519554	0.309386	-0.45714742	-0.18531683	0.4318424	0.052549895	-0.009137703	0.48811692	-0.2665346	-0.33130655	-0.122172326	-0.2058099
-0.6344594	0.17441036	0.75870353	0.49471465	-0.13996309	-0.16887704	-0.80045396	-0.7606987	0.76224744	0.88429254	-0.80415946	0.6790374	-0.37699446	0.18398316	-0.8383718	-0.90746677
0.41080663	-0.4656163	0.6644889	-0.12982523	-0.508698	0.62504184	-0.45942298	-0.092623636	0.33729324	0.0061487798	0.01189024	0.70262885	-0.50935364	-0.6432482	-0.30473432	-0.09692945
0.3355598	-0.30476415	0.3502971	-0.7089195	-0.095591396	-0.72108996	0.29385164	0.43067348	-0.5014131	-0.15876059	0.38899925	-0.80553836	-0.31374085	0.3344447	-0.050082598	0.25533882
0.51136786	-0.08107593	0.17913592	-0.2817965	0.066288136	0.07545283	-0.17441863	-0.32658735	0.41143343	0.025553122	-0.08311802	0.20406325	0.06860042	-0.027196588	0.25082663	-0.16213761
-0.29599214	0.3590928	-0.26420096	0.1503309	0.27997226	-0.4334238	0.10659404	-0.04682084	-0.00847257	0.06951687	-0.016236432	-0.20324178	0.21832159	0.3760946	0.114555396	-0.09979391
0.25930172	0.19126025	-0.046135556	-0.3537536	0.48975292	-0.81984943	0.22732294	-0.21254511	0.15262532	0.0054735467	-0.14163764	-0.42828023	0.30705413	0.6730965	0.39671534	-0.14188743
0.24742553	-0.21998717	0.40049848	-0.04755526	-0.19185524	0.30638096	-0.44322222	-0.20167044	0.32371402	0.20351468	-0.124063686	0.579914	-0.30112106	-0.37146404	-0.23428315	-0.2632695
-0.0840571	0.06642965	-0.33476007	0.24210154	0.029144183	0.20319626	0.11507689	0.27525237	-0.23831289	-0.30219382	0.36083606	-0.04761914	0.039409798	-0.168122	0.14531384	0.34632182
-0.5277834	0.026361026	0.5333036	0.47499117	-0.21622974	0.039079867	-0.68050057	-0.46995056	0.468276	0.61975527	-0.5145133	0.5611468	-0.35412142	-0.0749844	-0.75302225	-0.54533243
-0.68995696	0.4110404	-0.5146044	0.54053986	0.33724156	-0.462953	0.40405878	0.45412016	-0.49980056	-0.25066975	0.27799445	-0.64982766	0.23612508	0.5040562	0.027996799	0.38358378
-0.43410307	0.06373647	-0.12735768	0.29702285	-0.077707894	-0.4282973	0.08021218	0.35913745	-0.5106385	-0.08788293	0.25860018	-0.41895148	-0.2626347	0.24459359	-0.28504798	0.2008347
-0.048274886	0.2391116	-0.38489026	0.24496558	0.090460256	0.07460678	0.34965894	0.49906746	-0.52322966	-0.5586541	0.5241927	-0.29549745	0.19134235	0.04462324	0.28008327	0.57540345
0.54524523	-0.020747036	0.010918551	-0.57294995	0.28334618	-0.57382214	0.2856291	0.0016591753	0.024421949	-0.18500862	0.096620195	-0.48110586	0.21201359	0.38379914	0.38462862	-0.009182014
1.2647202	-0.078507334	0.42033967	-1.3550608	0.53714055	-0.79835254	0.44033197	-0.38483313	0.45420402	-0.17030367	-0.027171943	-0.69608915	0.4127466	0.56072307	0.7468369	-0.31635603
-0.377744	0.14051503	0.25270706	0.3559362	0.033304863	0.006866145	-0.47063136	-0.5205948	0.52446586	0.5286717	-0.5191946	0.43979794	-0.02997587	0.08802411	-0.31394708	-0.54232764
0.17451118	0.18886201	0.060530033	-0.04107565	0.30749	-0.15855166	-0.17378709	-0.4709554	0.4986563	0.30098915	-0.36256686	0.21940523	0.21156521	0.22755812	0.19566907	-0.45556417
0.38697258	-0.027518159	0.3932621	-0.42306963	0.2197763	-0.15290913	-0.24750821	-0.62813455	0.71464556	0.3369584	-0.43633282	0.31083235	0.11899745	0.13599375	0.2133522	-0.6333652
0.38408542	0.015318043	0.052062206	-0.38558748	0.28590432	-0.17119281	0.091017365	-0.25673777	0.2569231	-0.048508503	-0.026138645	-0.042003	0.2127947	0.20292346	0.34258583	-0.16833316
-0.042507503	0.20907795	-0.1896519	0.19510952	0.13318549	0.05284209	0.020499816	-0.12642105	0.16013551	-0.06933635	-0.04062238	0.13548273	0.17200068	0.053522017	0.15501224	-0.004536346
1.3612725	-1.0846163	0.75255007	-1.678318	-0.70687634	-1.3083762	0.9216393	1.3312138	-1.6078312	-1.1453241	1.3576161	-1.5099669	-1.150168	0.4018165	-0.014449172	1.2687082
-0.3054078	0.8167058	-0.8621997	0.39346752	0.60957265	-0.26846886	0.75815433	0.24055812	-0.2687625	-0.6726409	0.46453843	-0.7754183	0.692903	0.4819665	0.6711215	0.45680398
-0.07623612	0.55948544	-0.2169943	-0.00086347864	0.5451029	-0.65030473	0.112034924	-0.28367463	0.28226596	0.1882337	-0.2470123	-0.2788319	0.3636989	0.6219725	0.27715316	-0.3395402
1.2405304	-1.1286862	1.1893301	1.1197938	-1.3925145	1.5613849	-1.153151	0.5179195	0.9353491	-0.44157237	0.7837655	1.5032915	-1.1916696	-1.4666556	-1.1681567	0.7893967
0.047815047	0.038791474	0.15776892	-0.0015060393	0.08720709	0.016543597	-0.1493105	-0.20397991	0.19474076	0.06969966	-0.08150126	0.10999071	0.04699776	0.08472691	-0.025777452	-0.109265424
0.9610072	-0.9088532	0.99860597	-0.09814886	-1.1060405	1.0490566	-0.765727	0.59201527	-0.19780381	-0.44469893	0.6398498	0.94818056	-1.0154092	-1.1141081	-0.96818525	0.6937635
-0.1549461	-0.3881731	0.44198895	-0.28466678	-0.6290603	-0.64840406	-0.048481505	0.6140222	-0.7110507	-0.07213849	0.44286582	-0.5900746	-0.863776	-0.0048535527	-0.8280606	0.31842467
-0.037086625	0.24031712	-0.18596536	0.06410378	0.20959152	-0.1755295	0.096639596	-0.06307967	0.11011939	-0.049868498	-0.05153832	-0.0849434	0.11816195	0.2172811	0.19184254	-0.05843995
-0.0073341136	-0.14989978	0.17518105	-0.22502162	-0.073945716	-0.5974944	6.275675e-05	0.12656724	-0.24641277	0.018939635	0.0495147	-0.37094456	-0.26158842	0.3767594	-0.23688757	-0.01897396
0.25018376	0.0029203456	0.21047232	-0.33801538	0.13776052	-0.35044745	-0.007406871	-0.04381397	0.1095211	0.06766706	0.013933474	-0.22745182	-0.038499676	0.21980524	0.09753387	-0.15249188
0.757871	-0.50240767	0.49549106	0.2556922	-0.6721747	0.9053836	-0.57957786	0.33848584	0.19503777	-0.5804531	0.5655399	0.87482035	-0.6351597	-0.8008678	-0.3957887	0.50164205
0.5630057	0.7190527	-0.6133751	-0.41564703	0.80359054	-0.6214157	0.8201974	-0.33860224	0.30472174	-0.49988258	-0.057712473	-0.74034333	0.8087365	0.62205064	0.80483335	-0.16304086
0.67029136	-0.4409499	0.6018554	-0.33111003	-0.37563047	0.5054625	-0.40412834	-0.13143589	0.36447352	-0.058575936	0.093813024	0.567274	-0.390037	-0.5232452	-0.14038002	-0.078924544
-0.1456072	-0.015410242	0.037278038	0.032303248	-0.07234649	-0.2991853	-0.023941938	0.097864434	-0.15661699	0.040804747	0.049080864	-0.19703852	-0.14205162	0.21317829	-0.1380572	0.03587294
0.6639041	-0.4342455	0.55420256	-0.8564465	0.010790945	-0.7976386	0.23725352	0.14982964	-0.21231486	-0.19816886	0.27653292	-0.6352265	-0.23144114	0.40673494	0.16529971	0.07612425
-0.27877247	0.06772036	-0.022592874	0.2307	-0.035175875	0.038488224	-0.090274975	-0.040565845	0.02704817	0.05771137	-0.07375045	0.10452808	-0.043779086	0.02750109	-0.10089113	-0.09347201
-0.2966994	0.12164027	0.26881668	0.13646999	0.026443936	-0.39896762	-0.388309	-0.34778753	0.27599517	0.46101043	-0.36349505	0.12789896	-0.11535217	0.2863052	-0.4042435	-0.41990733
0.33768716	0.27236184	-0.3565473	-0.033085294	0.14943096	0.34809276	0.34128064	0.095029116	0.028835617	-0.70163214	0.27193332	-0.054795813	0.35270634	-0.095365725	0.39048856	0.29220423
-0.54767007	0.7786694	-0.8203441	0.6426669	0.87569267	-0.5097577	0.6128455	0.34584653	-0.42262045	-0.5375746	0.35374823	-0.6465874	0.7793581	0.7231887	0.672508	0.4242436
0.17982033	-0.04371065	0.21249875	-0.053966623	-0.10919762	0.12446698	-0.16133472	-0.07533442	0.07832253	0.045913957	0.05238082	0.17418136	-0.25297987	-0.125536	-0.07104005	-0.110660724
-0.46549922	0.26029912	-0.08678732	0.6669171	-0.038673747	0.3048855	-0.22582516	-0.27856785	0.28849447	0.19345368	-0.24055801	0.42308086	-0.061152782	-0.09623209	-0.25272968	-0.22231965
0.8067018	-0.910963	1.1096615	0.33420387	-1.0820513	1.2355708	-0.9996244	0.18152992	0.5304219	-0.09996447	0.32999825	1.3316076	-1.063122	-1.226399	-1.1334563	0.21543927
-0.86587036	0.665068	-0.9360043	0.76485515	0.59740156	-0.6447287	0.8202533	0.8959722	-0.99477077	-0.81972045	0.7577207	-0.9420765	0.4330284	0.7828208	0.7521181	1.0290514
0.09827642	-0.20180793	0.3022062	0.047106225	-0.16380486	0.2445072	-0.3049649	-0.2007426	0.28043747	0.13869755	-0.1739305	0.36620617	-0.17283256	-0.24917503	-0.14770004	-0.19509748
0.18926185	-0.4007542	0.4933928	-0.37929234	-0.28715473	0.014167754	-0.18655702	0.15672158	-0.08794786	0.022065697	0.10082681	-0.0035683755	-0.430124	-0.16377267	-0.25604424	0.05736515
0.16215429	-0.28248164	0.43508416	-0.03893263	-0.3678486	0.37070552	-0.37200695	-0.047351934	0.14911713	0.114042774	-0.011835173	0.45358485	-0.37225762	-0.28562042	-0.32853335	-0.11309791
0.48983535	-0.2877039	0.24222523	-0.21437278	-0.31055918	0.30087453	-0.12219845	0.35793987	-0.23967068	-0.4842707	0.5515298	0.21949977	-0.46680573	-0.41279215	-0.10618356	0.38526726
0.32424617	0.06017019	-0.18389665	-0.15949649	0.23597293	-0.07182203	0.34358513	0.25311202	-0.17538501	-0.50567126	0.41804394	-0.24146532	0.11306446	0.12401434	0.40984267	0.3424613
-0.36480534	0.11096755	0.029594013	0.39255667	-0.12561235	0.15576775	-0.25339478	-0.17351308	0.23949435	0.16051845	-0.1563994	0.3542645	-0.08621233	-0.057759646	-0.22641678	-0.19562086
0.031242674	0.00013374703	-0.15949516	0.028279835	-0.1456735	0.1029977	0.11655436	0.30483285	-0.33070034	-0.3247453	0.3494279	-0.03684186	-0.14269672	-0.13239099	0.047378592	0.3817483
-0.57203585	0.907711	-0.81368726	0.66246194	0.7405009	-0.3736575	0.6314768	0.35324627	-0.30519155	-0.5318921	0.27057546	-0.59177554	0.6905411	0.6528999	0.5944823	0.4617497
-0.12447064	-0.26316503	0.11340427	0.020486131	-0.37012094	0.22777826	-0.016402889	0.447667	-0.4275816	-0.20765607	0.33732045	0.034143396	-0.4634505	-0.29292607	-0.2925377	0.4181447
0.43880928	-0.55461234	0.56390756	0.15746991	-0.6342876	0.88326937	-0.5825297	0.09321874	0.2526669	-0.093612716	0.18778309	0.87514704	-0.57259	-0.84019446	-0.4883805	0.1270691
0.9596039	-0.89807564	1.0594552	0.68283504	-1.1156257	1.3581852	-1.0952173	0.035285313	0.9878946	-0.18889435	0.2855576	1.3908943	-0.9824692	-1.2529058	-0.95908785	0.25778162
-0.045454957	0.21020716	-0.3836852	0.23019701	0.0695756	0.21323276	0.2017545	0.10012847	-0.087348975	-0.3782809	0.19431162	0.04933113	0.11799364	-0.026352108	0.29053545	0.27637538
0.36704427	-0.008472435	0.19472432	-0.2598998	0.09926776	0.1531822	-0.10984379	-0.26082674	0.2971643	-0.04853713	-0.055208992	0.27552253	0.026065983	-0.09759487	0.16555683	-0.17726304
-0.070765845	0.3827218	-0.30649808	0.16514102	0.40177527	-0.24966028	0.25699764	-0.07194447	0.009131142	-0.10583668	0.037347075	-0.22068077	0.31563565	0.27088177	0.31629992	0.04863709
-0.9611304	0.64707017	0.4679348	0.8968684	0.15909144	-0.5491941	-0.6689778	-0.697582	0.74835074	0.76568115	-0.7095814	0.6881852	-0.17583701	0.59116924	-0.8437487	-0.77886283
0.25477445	0.14515324	-0.12431566	-0.12336897	0.17999674	0.089119	0.098395936	-0.11677983	0.17154442	-0.28733125	0.022331377	0.08631317	0.2615919	0.06179564	0.36417568	-0.013846876
0.07711535	-0.15695886	0.5922047	0.30813992	-0.30130646	0.47547498	-0.8069021	-0.56602746	0.7034444	0.5254879	-0.42742205	0.89279383	-0.3876242	-0.3241069	-0.5199842	-0.53971493
0.13267767	0.34510577	-0.19208263	-0.04033037	0.33119217	-0.23845606	0.1233766	-0.34122998	0.44500008	0.017295107	-0.17645136	-0.02427462	0.36789736	0.22239912	0.318512	-0.24097797
-0.28551456	0.12510177	-0.07491528	0.35530892	-0.07285282	0.0630102	-0.15485069	0.09273028	0.014159455	0.0578725	0.010943764	0.1365093	-0.13726296	-0.05832416	-0.22161196	-0.012858747
-0.10935557	-0.45281145	0.6014893	0.5752118	-0.68127644	0.87872344	-0.8530523	-0.1732849	0.48230594	0.30654433	-0.20154299	1.0039593	-0.637743	-0.8271177	-0.91570044	-0.1326344
-0.4215945	0.001616612	0.34231433	0.36276305	-0.14246888	0.0130121345	-0.43171307	-0.2736878	0.24773945	0.47496888	-0.33730844	0.3318015	-0.21370254	-0.033542577	-0.46879575	-0.38071486
0.7158329	-0.22254461	0.37466434	-0.42416403	-0.16684394	0.24942532	-0.27471706	-0.06265365	0.19069126	-0.120207615	0.12647323	0.3689738	-0.14457689	-0.21324337	0.07735363	-0.06875636
-0.35797617	0.31774056	-0.24633707	0.47531566	0.23239201	-0.022844464	-0.040149644	-0.12713173	0.1354397	0.08748441	-0.13695598	0.05286087	0.105049536	0.107398815	-0.004381387	-0.09885152
-0.30831164	-0.027161209	0.2446476	0.16829757	-0.18707396	-0.11186231	-0.38122326	-0.26040164	0.2708693	0.37920982	-0.33162883	0.22522803	-0.25965476	0.04011893	-0.50226897	-0.35563245
1.2024766	-0.9137236	0.48202786	-1.4482107	-0.50360477	-1.0732975	0.92071545	1.0608842	-1.2081766	-1.2019156	1.2077272	-1.3514093	-0.8231273	0.40358934	0.1249367	1.0833712
0.19871016	0.11291861	-0.09509271	-0.2340573	0.21356177	-0.18654992	0.26463214	-0.014701719	-0.035703372	-0.16318466	0.08189025	-0.28528523	0.18714796	0.20181428	0.24974829	0.12840305
-0.7005968	0.75414014	-0.6271056	0.8142253	0.6434277	-0.3745614	0.37115338	0.19922437	-0.27912506	-0.29564765	0.19245347	-0.42790598	0.5285539	0.48332205	0.3632134	0.23944594
0.59782696	0.22220674	-0.13410595	-0.61405843	0.5958287	-0.64003617	0.47549316	-0.23915918	0.1646086	-0.20995343	-0.050586347	-0.6188001	0.42075765	0.51905763	0.6347336	-0.10715976
-0.91921747	0.74988824	-0.72745174	0.84639984	0.60224533	-0.39529866	0.48609772	0.34558463	-0.39906114	-0.2761102	0.15874884	-0.38695607	0.448042	0.61731166	0.31112018	0.38894963
0.23008741	-0.25403884	0.19699903	0.15378906	-0.370552	0.5723758	-0.36436075	0.08721777	0.15453653	-0.19129898	0.18648134	0.58442914	-0.32984948	-0.5301641	-0.23884316	0.15964383
0.29162467	-0.15030935	0.24073811	-0.0713096	-0.08192662	0.27573484	-0.1930453	-0.11528658	0.23416078	-0.04161016	0.0009688955	0.31103614	-0.2049774	-0.23833627	-0.022901518	-0.069399245
-0.2600261	0.21778286	-0.29811218	0.4908418	0.0651056	0.2107833	0.044055022	0.119886845	-0.0210274	-0.16098358	0.07753581	0.16696796	0.063972175	-0.11674634	0.111069694	0.15269658
0.6221965	0.16835569	0.12618852	-0.29713395	0.28591636	0.1283698	-0.18518807	-0.723457	0.98829734	0.29179722	-0.5714121	0.42092714	0.3760617	0.08418243	0.42013162	-0.66616523
0.25927165	-0.06515092	0.1568876	-0.27516636	0.09891522	-0.15684022	-0.13705336	-0.25322393	0.28645384	0.10433134	-0.10975325	0.047348347	0.016780062	0.10503323	0.052672658	-0.25034007
0.28235134	0.44341904	-0.14304793	0.04357687	0.354338	-0.0023617041	-0.03275551	-0.42410162	0.4328993	0.02744523	-0.3163113	0.20526913	0.31184945	0.15739417	0.48097146	-0.22622593
0.91971064	0.31151482	0.10157479	-0.8506611	0.6967567	-0.68929005	0.49978244	-0.5627939	0.5550494	-0.06761437	-0.26155466	-0.5117175	0.5248825	0.6105594	0.83397317	-0.5625815
0.40549356	0.41950047	-0.25124753	-0.32663077	0.5860208	-0.43631357	0.424646	-0.2988669	0.2676232	-0.25275835	-0.0514694	-0.37448436	0.5409378	0.44161776	0.731087	-0.11853756
-0.41793343	0.34896883	-0.21514523	0.30247143	0.23838267	-0.50419956	0.0068084155	-0.01832779	-0.052388173	0.11709298	-0.13171883	-0.12890455	0.054944195	0.4391768	-0.15553503	-0.08696661
0.7776833	0.11418509	-0.11464331	-0.77761424	0.5293972	-0.71715266	0.5134564	-0.06382035	0.010755812	-0.39158875	0.25453964	-0.7399694	0.35244036	0.569401	0.67993116	-0.019725883
0.7938457	-0.9290503	1.0103673	0.9476843	-1.1770014	1.3436213	-1.0778786	0.55943245	0.68091375	-0.41935933	0.62323207	1.298621	-1.099868	-1.2459	-1.0282159	0.8220161
-0.28433037	0.31179005	-0.1737717	0.37169492	0.17549385	0.0026456246	-0.05891102	-0.19511138	0.29214773	0.103452936	-0.24432907	0.15493706	0.15191875	0.052603573	-0.06821173	-0.16392118
0.010867853	-0.25961506	0.781805	-0.40459707	-0.09495878	-0.7787445	-0.3185679	-0.14947614	-0.017065454	0.39015478	-0.20623712	-0.35316423	-0.37406284	0.47271484	-0.50866175	-0.31210533
-0.15738799	-0.13242447	0.16610356	0.21010521	-0.3176982	0.28264442	-0.23529099	-0.01956177	0.08232287	0.047328163	-0.05579226	0.32954362	-0.33679777	-0.23617215	-0.30671063	0.014381135
-0.6479857	0.65014696	-0.4851405	0.5945002	0.49030784	-0.5472857	0.13944446	0.003052061	-0.05607854	0.121827014	-0.12595624	-0.2701593	0.27640596	0.6155756	0.07442191	-0.058668833
-1.1310855	0.959631	-0.9767126	1.3111941	0.45175067	0.16191773	0.6187637	0.684194	-0.69132733	-0.6243409	0.51159483	-0.47039953	0.6618689	0.29114118	0.32390848	0.773137
-0.921146	0.5160224	0.9876435	0.8685575	-0.11985318	-0.6698756	-0.9209987	-0.7430565	0.8533723	0.95298374	-0.8352481	0.8827239	-0.5517465	0.52998567	-1.0883002	-0.8819991
0.6735478	-0.28894833	0.08381707	-0.5923404	0.047563538	-0.15111317	0.3846699	0.3125302	-0.24533695	-0.627107	0.4428674	-0.40265077	-0.0035582506	0.09678682	0.41895527	0.3499989
0.113241255	0.09898119	0.20823511	-0.034976766	0.16619499	0.013149702	-0.22298399	-0.41689673	0.42506462	0.24804863	-0.28541633	0.27903202	-0.029630043	0.060565807	0.079600394	-0.37918463
-0.024971053	-0.45846277	0.3850677	0.224473	-0.6959158	0.6435335	-0.40668	0.3471871	-0.18146251	-0.18516585	0.28174695	0.44526377	-0.6543679	-0.63914436	-0.5820751	0.29435176
-0.24108556	0.30498186	-0.09654137	0.20840833	0.21494031	-0.27275229	-0.09029073	-0.20091937	0.15023388	0.1737239	-0.18320394	0.038990974	0.13453467	0.30587152	-0.09502363	-0.22990365
-0.08407223	0.24890581	0.21079403	0.02279361	0.28275427	-0.2810958	-0.41928223	-0.6645055	0.7153051	0.5750924	-0.5815774	0.29910195	0.14036201	0.35135052	-0.10779897	-0.68771994
0.30540773	0.09146582	0.04683162	-0.3260629	0.26756257	-0.2239585	0.07708794	-0.29893583	0.2650561	0.006662445	-0.09502637	-0.06478306	0.21334983	0.22145282	0.28994304	-0.2311242
-0.7062625	-0.11197549	0.35304463	0.38132998	-0.5537375	-0.5817358	-0.49398428	-0.16629012	0.1483882	0.5479001	-0.36949077	0.2017457	-0.5537831	0.21355157	-0.91024196	-0.42739877
-0.6955326	0.764371	-0.7128408	0.76642907	0.7300472	-0.6041822	0.34819925	0.052902807	-0.1641481	-0.07065061	0.041158397	-0.5257032	0.68589526	0.7684554	0.349022	0.07705816
-0.29572594	-0.25012156	0.6613935	0.032776814	-0.37308204	0.04849947	-0.5218102	-0.065908544	0.07744394	0.45165342	-0.23231053	0.1486523	-0.54024947	-0.12281624	-0.858695	-0.26932958
-0.85702854	0.863149	-0.88315666	0.94474256	0.7492778	-0.28383362	0.6014302	0.3700268	-0.4064675	-0.47518253	0.23226078	-0.40158308	0.6654108	0.5413878	0.6098155	0.375107
-0.952611	0.950877	-1.0582864	1.0090538	0.87192345	-0.49238595	0.84392756	0.595841	-0.68997407	-0.77066	0.49875194	-0.8701508	0.956016	0.7563547	0.815428	0.77911574
-0.96123874	0.35778475	0.65269345	0.8466996	-0.2941215	-0.28272244	-0.78527135	-0.67245084	0.6975999	0.8698224	-0.8101656	0.77498883	-0.40539613	0.30446306	-1.0027224	-0.8112831
-0.3457345	0.51443696	-0.60765606	0.596516	0.3600777	0.11664908	0.33759505	0.2261463	-0.23234552	-0.36461124	0.24565883	-0.21346699	0.41743115	0.12990355	0.43476188	0.33818918
-0.02366198	0.14192027	-0.2830547	-0.036979537	0.24211536	-0.3294793	0.33735144	0.36867404	-0.37678644	-0.44436577	0.39035666	-0.43142432	0.10190449	0.26598212	0.40204728	0.37948737
-0.24014156	0.34643465	-0.50051165	0.50246775	0.27883962	0.07769353	0.37402403	0.31277293	-0.2578845	-0.5483243	0.400725	-0.0650753	0.19730072	0.025860429	0.33260453	0.42591247
-0.35219198	0.55777097	-0.62712526	0.40287888	0.51378363	-0.39506155	0.3844641	0.045560148	-0.11544047	-0.20517322	0.09015484	-0.393631	0.43364742	0.5081547	0.33322635	0.16372357
0.41742784	-0.22114994	0.29812413	-0.17946051	-0.12647992	0.20194122	-0.27109548	-0.11847791	0.27173382	0.025646506	0.025443688	0.24619563	-0.18389311	-0.227933	-0.031661544	-0.104771376
1.1598392	0.08937044	0.34909022	-1.2215027	0.7611032	-0.77489084	0.40974388	-0.7597685	0.75907797	-0.08370006	-0.22229493	-0.47333527	0.607172	0.6523495	0.7946933	-0.7137621
0.49747553	-0.63647556	0.7005008	-0.049045224	-0.7180421	0.6323504	-0.5937881	0.23854342	-0.060721874	-0.16583243	0.27756944	0.5933763	-0.77046126	-0.7187241	-0.6436147	0.24566384
0.76785797	-0.49962494	0.63388795	-0.3072796	-0.4980216	0.5049971	-0.569509	0.050597504	0.17120162	-0.13873628	0.27667007	0.5654832	-0.62039244	-0.53936285	-0.3205548	0.1175677
1.0897142	-0.7347902	0.713835	-0.5746755	-0.6614139	0.5898368	-0.2904239	0.4474721	-0.24380185	-0.62738603	0.66523266	0.42119327	-0.6834199	-0.70333827	-0.2338389	0.54992634
0.078560024	0.3057905	-0.3911566	-0.03426246	0.40549567	-0.3696987	0.4662071	0.098367706	-0.17713472	-0.38177425	0.24531847	-0.4406141	0.26317036	0.3418191	0.45008665	0.17868724
0.44739366	-0.39538845	0.42899144	-0.084737845	-0.346796	0.54803914	-0.3903592	-0.044356987	0.14927408	-0.06953636	0.087086365	0.55128926	-0.3689516	-0.5206496	-0.2652218	0.063084215
0.0391831	0.012193702	0.0002741886	0.14540078	-0.08284728	0.32910395	-0.11501648	-0.1303502	0.18030015	-0.046789136	0.006553808	0.38466245	-0.01835608	-0.18862735	0.06397069	-0.044946346
-0.22784868	-0.012824068	0.16323023	0.21013762	-0.10217034	0.046591956	-0.21574305	-0.17580298	0.26681456	0.19598085	-0.18805523	0.23682113	-0.04350605	-0.02048797	-0.2443647	-0.22883198
-0.012067582	0.0012027092	0.26084557	-0.0064513683	-0.002839506	0.021353694	-0.25151882	-0.31078815	0.3871922	0.21466045	-0.2758013	0.31696054	-0.09969399	-0.06281989	-0.11151691	-0.26687217
0.06831444	0.30130276	-0.39047888	0.16383447	0.26141134	-0.095529325	0.32766974	0.39363807	-0.31157503	-0.5954942	0.45810446	-0.28526673	0.025184782	0.10106382	0.34738535	0.42523125
0.40109769	-0.32168075	0.53126067	-0.10064238	-0.3403445	0.5586271	-0.5568802	-0.33300295	0.56940717	0.19767201	-0.18386397	0.71505034	-0.28876954	-0.55974793	-0.20941913	-0.32078767
-0.9602632	0.59054154	-0.26730922	0.8476708	0.22321784	-0.3630626	-0.19524653	-0.14915663	0.14129654	0.37260467	-0.33933574	0.1516584	0.13139012	0.50601304	-0.446975	-0.30247682
0.61586195	-0.47035223	0.472937	-0.61101246	-0.17661063	-0.053118296	-0.112746604	0.005178617	0.021268666	-0.10648108	0.18130387	-0.0037443708	-0.2767327	-0.11803624	0.05725771	-0.0485779
1.1734892	0.4534454	-0.28776246	-1.2041	0.97207975	-1.0388595	0.9534158	-0.5209104	0.47705072	-0.6471682	-0.02876043	-1.0397552	0.77103066	0.9164781	1.0685141	-0.36678794
-0.47024673	0.4696296	-0.42192668	0.5220716	0.38785315	-0.25373572	0.05006561	-0.051516294	0.064590566	0.021342777	-0.11171876	-0.12890996	0.20307995	0.33062983	0.04184322	-0.08117195
-0.15322964	0.5539473	-0.17620732	0.2846937	0.27650508	-0.090577416	-0.1184307	-0.4042295	0.38986963	0.2789564	-0.37534654	0.2397258	0.28047773	0.30149677	0.0720507	-0.3890441
1.4646173	0.42252615	0.06175061	-1.4584471	0.9504045	-1.0839498	0.96539396	-0.7754401	0.76342094	-0.3069869	-0.3745019	-1.017239	0.82008064	0.8155154	1.13504	-0.81771487
-0.22463073	0.5082228	0.007766382	0.30667228	0.38146278	-0.27398425	-0.26488316	-0.54204184	0.5824222	0.46571964	-0.5402741	0.31775934	0.20473987	0.34466937	0.03726971	-0.5435054
0.40827236	-0.5672973	0.57447106	0.033101942	-0.6295244	0.61120814	-0.4551351	0.18550459	0.047503494	-0.13389663	0.17667557	0.59102005	-0.6349179	-0.61601317	-0.54310423	0.23118056
0.5630566	-0.14969699	0.24855724	-0.7126157	0.17689075	-0.7398333	0.3099935	0.029293792	-0.12081642	-0.14450821	0.17784195	-0.60959667	0.0016931852	0.4296118	0.36027485	0.06400577
-0.6792684	0.43938482	-0.36986154	0.55823576	0.20753962	-0.30266845	0.0073184916	0.096379414	-0.09788831	0.16379724	-0.11890813	-0.12381571	0.0976781	0.34569395	-0.18670121	0.0044939737
0.667501	-0.5872414	0.4570585	-0.98316646	-0.2851241	-1.0281196	0.7286736	0.71760815	-0.9226338	-0.6090787	0.69399047	-1.081295	-0.6681464	0.35681394	0.11134618	0.6345307
0.39693135	0.33552712	-0.19212338	-0.33415103	0.39504188	-0.34064052	0.29360235	-0.26505876	0.27552024	-0.105329126	-0.06991979	-0.31166518	0.40112725	0.35041505	0.48231605	-0.17432478
-0.07864126	0.017976139	0.18482578	-0.09106993	-0.012695614	-0.3934888	-0.2542182	-0.17081663	0.06974387	0.34390762	-0.11928883	-0.035929777	-0.14745432	0.19358633	-0.35418773	-0.22170466
-0.26218995	0.09410831	0.016751233	0.11665799	0.057359353	-0.2827383	-0.0825538	-0.048439965	0.012830945	0.1445211	-0.099219635	-0.067457795	-0.05271057	0.20525329	-0.125436	-0.1651853
0.31438476	-0.11380395	-0.10235126	-0.23427263	-0.07610769	-0.0867359	0.30279633	0.4780884	-0.5667988	-0.64580286	0.6633306	-0.39687353	-0.1496155	-0.08263522	0.26433614	0.62495226
1.0100156	-0.13395168	0.904165	-1.1611394	0.40490773	-0.37950867	-0.106848545	-0.8208389	0.834032	0.40875685	-0.53193635	0.08393331	0.28445572	0.27527124	0.54920214	-0.72043914
-0.18002297	-0.25431406	0.31644472	0.23182307	-0.39771166	0.40188646	-0.3831699	0.07865167	-0.04693208	0.04495519	0.0017813654	0.40191886	-0.37720746	-0.36013013	-0.47678128	0.019732935
-1.0574418	0.6340031	0.728407	1.0366539	-0.14644271	-0.5265197	-0.93790203	-0.85265243	0.9840499	1.0064815	-0.9033344	0.9215185	-0.41777447	0.6516587	-1.0431455	-1.0002974
0.10433264	-0.36634356	0.35990423	0.5773923	-0.5681208	0.8441433	-0.6600945	-0.040322408	0.3968501	0.003949363	0.00898181	0.8872669	-0.5380015	-0.7550447	-0.63375723	0.030084934
-0.60860556	0.30762696	-0.22696507	0.7053295	-0.039319497	0.2407665	-0.07710702	0.10355033	0.035220444	0.010462615	-0.09018113	0.19680732	0.030736338	-0.06645239	-0.20867401	0.0788057
0.40380538	-0.3834241	0.07002276	-0.41395727	-0.36687413	-0.037200004	0.18904567	0.60202354	-0.5470291	-0.44679454	0.5252575	-0.2799796	-0.3997845	-0.17812169	-0.10507448	0.51861763
0.49998018	-0.07120286	0.053139098	-0.46733147	0.21085154	-0.16599013	0.24293813	-0.10435873	0.10956481	-0.27130753	0.074508056	-0.12556806	0.22730541	0.09636991	0.38367596	-0.020571537
-0.024516836	0.39274	-0.49585408	0.15247712	0.4029251	-0.28804073	0.39599973	0.1113028	-0.16394474	-0.3250057	0.17969036	-0.35274562	0.36989886	0.39337426	0.516533	0.18587562
-0.14539398	-0.27489954	0.5978175	-0.3482432	-0.3158201	-0.9066402	-0.107395835	0.19807783	-0.29111746	0.20055193	0.013353676	-0.39464796	-0.6786413	0.3999783	-0.54152566	-0.037045043
-0.036090698	0.10955741	-0.26874432	0.15966296	0.11512673	0.0012728516	0.21341805	0.26659486	-0.20114562	-0.3065364	0.22604841	-0.20275667	0.13820149	0.05271612	0.28798115	0.28144515
1.3701984	-0.25118026	0.49002934	-1.2372651	0.42210224	-0.39635825	0.29862785	-0.2950581	0.3320085	-0.4100733	0.13077189	-0.29989976	0.2762531	0.26036453	0.7691887	-0.21062085
-0.5586823	0.19456112	0.7327935	0.43596348	-0.25314438	-0.3876481	-0.5554144	-0.41431132	0.48824152	0.63896143	-0.53611976	0.45231313	-0.40934384	0.28134775	-0.7351187	-0.5147858
-0.40364572	0.018050175	0.13013288	0.53526306	-0.18514533	0.241476	-0.44876075	-0.29151765	0.32863653	0.35047483	-0.27741173	0.5529295	-0.21265928	-0.1856222	-0.47161168	-0.27820095
-0.68305755	0.4512611	-0.74888027	0.5085988	0.30830827	-0.49412024	0.822989	0.98727876	-1.1204706	-0.8890268	0.85149837	-0.9986239	0.22083561	0.48014957	0.47204974	1.0498124
0.06392049	-0.18286379	0.3379751	-0.53690237	-0.11623168	-0.6208924	0.0062675355	0.2229949	-0.39722624	0.08238176	0.21906477	-0.5211561	-0.5018021	0.37351164	-0.42115417	0.026410852
-0.3075333	0.64202774	-0.582257	0.36479193	0.6583209	-0.51446277	0.27904496	-0.13338652	0.08130651	-0.11208522	-0.021915205	-0.38880736	0.44709674	0.4982745	0.44321296	-0.075224325
-0.07895388	0.68575317	-0.4176482	0.16611314	0.5706239	-0.40887848	0.23713109	-0.30755165	0.29283434	0.054809555	-0.23941505	-0.12753816	0.49762183	0.51855206	0.3517859	-0.23325743
-0.26919493	0.802008	-0.4689667	0.3690525	0.46989924	-0.3042174	0.12992132	-0.11833383	0.1914501	0.06484291	-0.08658288	-0.24744067	0.48450267	0.51217186	0.31767768	-0.14371523
0.93134004	-0.1631526	0.29528657	-0.9884681	0.46119833	-0.6382072	0.37532464	-0.2752264	0.26438648	-0.17678729	0.036904763	-0.53535724	0.3147115	0.47782147	0.60072094	-0.18223427
-0.55899704	0.6507114	-0.7169177	0.68409127	0.63123876	-0.41351253	0.5017837	0.31312305	-0.34267202	-0.4288	0.26771632	-0.43492356	0.49290323	0.5963906	0.50273836	0.40002713
0.76563686	-0.55517316	0.7341014	0.020323562	-0.71200746	0.86203647	-0.7377174	0.096625015	0.4492214	-0.2200286	0.26334476	0.96669084	-0.5931915	-0.81928706	-0.41851753	0.16033934
0.28823975	-0.05772055	0.48651972	-0.51458097	0.16978632	-0.66539794	-0.23576322	-0.24835081	0.20314865	0.2903992	-0.2257196	-0.22270595	-0.095253676	0.41566846	-0.011257184	-0.311966
0.17498843	0.19649407	-0.03458422	-0.188242	0.33508763	-0.4997345	0.19967237	-0.06696594	0.015660655	0.014136601	0.013227	-0.39731228	0.12488672	0.3544381	0.22916396	-0.0887678
-0.0661658	0.13379475	-0.28738323	0.21812847	0.0028492138	0.1842462	0.2013849	0.31026775	-0.30020824	-0.3875525	0.41127568	-0.02198167	-0.042758495	-0.087083906	0.06651773	0.4196145
0.88831115	0.36891392	0.049281653	-0.8544737	0.7549091	-0.6926701	0.4747605	-0.72603893	0.80915546	-0.0359753	-0.36601594	-0.45034376	0.65092915	0.62056214	0.74861914	-0.6626295
0.52047443	-0.32837424	0.4211156	-0.5389629	-0.121571966	0.03459372	-0.13290603	-0.01955791	-0.054855507	-0.06995077	0.119366676	-0.022565281	-0.18845801	-0.058446415	-0.050548334	0.036175836
1.262865	-0.8438025	0.3805382	-1.515186	-0.4350371	-1.2514118	0.95838773	1.2130495	-1.441011	-1.1729499	1.3291905	-1.3881531	-0.8593463	0.54125077	0.3312159	1.077984
-1.091028	0.72856665	0.88279283	0.9693083	0.002640604	-0.9789421	-0.98402256	-0.9096628	0.9659595	1.1055241	-1.0081662	0.87331516	-0.52766484	0.88433695	-1.1444132	-1.1053263
0.17355824	-0.22308326	0.09695712	-0.2579849	-0.26992646	0.013194811	0.15652767	0.46328792	-0.4397388	-0.33818066	0.5048483	-0.2440282	-0.25680146	-0.13617235	-0.008717964	0.3732834
-0.20920557	0.31472263	-0.4245365	0.26925766	0.30344352	-0.17138053	0.2869228	0.10568397	-0.15848628	-0.24524146	0.1441868	-0.26545	0.32319355	0.29229197	0.24106205	0.18873353
-0.043549012	0.33762923	-0.010653153	0.03765315	0.25339144	-0.17194183	-0.067824595	-0.44250828	0.47255048	0.21867765	-0.36350214	0.13470595	0.23283997	0.20489801	0.17776383	-0.38718146
-0.46282747	0.28094843	-0.40016818	0.7892139	-0.067765616	0.4372436	-0.022948341	0.25544313	-0.071524195	-0.3597032	0.17026635	0.31923464	-0.007553218	-0.3416869	0.007596701	0.41339636
0.06856696	-0.15153034	0.070099935	-0.19699566	-0.1194249	-0.13301608	0.08338197	0.33704716	-0.30522752	-0.23132011	0.32747298	-0.22262186	-0.20685853	-0.013148029	-0.11884977	0.35499147
-1.1117511	0.75961107	-0.583095	1.1981072	0.33210796	-0.0042052465	0.20218989	0.24819809	-0.2599813	-0.03613258	0.0075456994	-0.22859351	0.37086564	0.62829846	-0.048023768	0.14011188
0.22831692	-0.041253235	-0.09499255	-0.14551446	0.0016760868	-0.14989433	0.19760364	0.25541425	-0.19996628	-0.2292078	0.33161205	-0.22128342	-0.07521237	0.036594182	0.17715414	0.21604486
0.75606954	0.37917444	-0.021268412	-0.7468825	0.7435058	-0.811909	0.41803253	-0.5846514	0.5498087	0.00928608	-0.36994848	-0.56845945	0.6739359	0.7879371	0.7419651	-0.51404506
0.10798219	0.0134634795	-0.22332436	0.026968628	-0.02904628	0.10306884	0.22646554	0.27990478	-0.22731857	-0.48984388	0.4196249	-0.032992546	-0.05986981	-0.10986231	0.23541097	0.37659574
0.5056705	0.4647127	0.42196417	-0.55464077	0.6948894	-0.73018664	-0.021082696	-0.83383524	0.8781782	0.5419668	-0.69692075	-0.11134824	0.46757478	0.66803026	0.4212866	-0.8649736
-0.05224978	-0.20202835	0.14426047	0.09553351	-0.34591445	0.3769488	-0.16545455	0.08984497	0.029994572	-0.005655439	0.06313014	0.3450078	-0.25690904	-0.41295117	-0.24493983	0.035080004
-0.48146507	0.76587623	-0.68484473	0.5405362	0.6502054	-0.57420605	0.43023694	0.044924606	-0.08556749	-0.1535127	0.037508328	-0.49858513	0.6708855	0.7271751	0.30714095	0.12165929
0.2898301	0.19399936	-0.15242492	-0.2803872	0.45920065	-0.5307892	0.41140246	-0.02914208	-0.015497831	-0.3127709	0.14270498	-0.5869916	0.3227452	0.47186667	0.5246948	0.05041644
0.4091304	0.35195485	-0.25751126	-0.25142905	0.5024618	-0.3585067	0.40064585	-0.19235657	0.16317281	-0.2139722	0.10052657	-0.21894997	0.41312382	0.40203354	0.72079176	-0.08901905
-0.27281287	0.405348	-0.20326458	0.21152002	0.27408686	-0.23758858	-0.009939405	-0.17157468	0.18678778	0.15365863	-0.2123983	-0.05277141	0.28886002	0.3881477	0.11441691	-0.11252333
-0.5745561	0.18267776	-0.048307955	0.38615844	0.02886701	-0.33546963	-0.12510726	-0.017404674	-0.0588099	0.28470188	-0.13942137	-0.14641714	-0.06311828	0.26212305	-0.36306134	-0.08077089
0.38704705	-0.21577834	-0.03070827	-0.6999526	0.09278569	-0.736031	0.5545306	0.5326011	-0.6257367	-0.39342323	0.51514727	-0.859088	-0.20018363	0.45721543	0.28472325	0.401694
-0.6431925	0.6217269	0.22054926	0.6287187	0.13699658	-0.50875926	-0.4531609	-0.52919066	0.520157	0.55206436	-0.54877967	0.376449	-0.004744256	0.57644963	-0.46218905	-0.5180094
0.30340037	-0.35709453	0.46857974	-0.11699749	-0.391714	0.43908703	-0.40994555	-0.040578146	0.1811961	0.007915025	0.053347215	0.42189527	-0.46217987	-0.39238423	-0.2637065	-0.027798347
-0.41686076	0.29395685	-0.4926707	0.41441467	0.20945065	-0.15774912	0.4791295	0.50106585	-0.4576241	-0.4697562	0.38721207	-0.42947012	0.19407849	0.1963311	0.23218708	0.53902984
-0.007879628	-0.16097255	0.020832334	-0.011882569	-0.267481	0.121907175	0.04010842	0.36819336	-0.36748192	-0.2946218	0.35542643	0.0034645682	-0.33287102	-0.19493671	-0.17395043	0.37541175
-0.15485308	0.20615697	-0.32390714	0.37664142	0.08354941	0.12463862	0.088947296	0.20206627	-0.17112924	-0.25494227	0.1872547	-0.018276356	0.09228626	0.01723846	0.12880263	0.29027188
0.836576	-0.8363099	0.77208996	-1.1362873	-0.5248244	-0.7513928	0.33580855	0.80206096	-0.83265436	-0.49799165	0.77522695	-0.8829405	-0.82314396	0.14897534	-0.15799259	0.6095095
-0.38904986	0.51469964	-0.47842667	0.39027998	0.3952548	-0.27014562	0.39896843	0.21517234	-0.26636133	-0.3733053	0.1688788	-0.43479675	0.36905152	0.384252	0.28817156	0.30134073
-1.1263399	0.64950174	0.6969338	1.0618252	-0.25936317	-0.5175172	-0.9290417	-0.84210676	0.8062784	0.92996967	-0.93361324	0.8476871	-0.53580636	0.6348013	-0.9928918	-0.87496054
-1.3160782	0.8594017	-0.98219424	1.3335818	0.62860405	-0.15307027	0.5729675	0.5761186	-0.654852	-0.48621446	0.38399923	-0.51020056	0.73446	0.5941375	0.38424447	0.6898813
0.68345404	-0.63097364	0.8794645	0.11312578	-0.74613565	1.035343	-0.8157675	-0.34257838	0.79016906	0.19108438	-0.061819132	1.0485694	-0.67035437	-0.93041766	-0.5909376	-0.22438696
-0.28295726	0.39878398	-0.08271421	0.19902138	0.4668404	-0.42629826	-0.06366357	-0.3092999	0.3570402	0.24603651	-0.34478354	0.11034571	0.19042721	0.46526608	-0.028588478	-0.38850674
0.6473606	0.71117973	-0.38237005	-0.54131603	0.8051531	-0.7329989	0.6691991	-0.5146973	0.54426754	-0.18050814	-0.24838053	-0.70346177	0.7383755	0.70601475	0.87880737	-0.37998095
-0.83009976	0.31821468	0.030167218	0.7992503	-0.11243183	-0.09251827	-0.36517358	-0.3091818	0.29515216	0.46532258	-0.44876876	0.31521192	-0.11129866	0.31212875	-0.60376775	-0.36625808
-0.48752293	0.114531726	-0.15664312	0.6462911	-0.15200625	0.2631252	-0.20783776	0.037968744	-0.08171529	0.11128149	-0.08400284	0.2034279	-0.16109447	-0.19608335	-0.42667016	0.039379604
-0.10136424	0.4272058	-0.4787758	0.22109397	0.27540144	-0.028556406	0.34745148	0.26211938	-0.24601887	-0.43915933	0.24722308	-0.29532745	0.43019354	0.13270478	0.43566862	0.31952322
-0.41261333	0.29563352	-0.36697724	0.542304	0.0125394855	0.25064895	0.05666363	0.08333461	-0.037613157	-0.13356905	0.08002155	0.12723887	0.118148014	-0.08460792	0.0517525	0.15616602
0.30349755	-0.5007269	0.4818405	-0.65325284	-0.42349732	-0.6052085	0.035293996	0.48402452	-0.6510786	-0.18847467	0.47608855	-0.55914754	-0.62204826	0.13122845	-0.3796417	0.34006768
1.2701565	0.0312552	0.2360772	-1.3583183	0.61441493	-0.99937135	0.7015234	-0.32810056	0.3780965	-0.19058232	0.0057212533	-0.87525433	0.4058621	0.75422704	0.8608392	-0.34157524
0.0027371177	0.14179477	-0.27343917	0.124569364	0.10399211	0.05337049	0.24658994	0.15981686	-0.17324015	-0.27476546	0.21670917	-0.1885129	0.21363094	0.025268406	0.24756673	0.20508185
-1.0646427	0.7358176	-0.85817736	1.0238713	0.6474824	-0.13501531	0.6937967	0.72090083	-0.7670215	-0.62478334	0.50024056	-0.59609497	0.6418592	0.60653794	0.5630265	0.7724349
-0.75085086	0.24049081	0.3640265	0.365105	-0.012620046	-0.90422404	-0.47870332	-0.35266125	0.3216962	0.6001729	-0.43718603	0.1645116	-0.3485836	0.7030989	-0.75779086	-0.43747357
-0.14553954	-0.13349374	0.61141413	0.103563845	-0.2598252	0.0030004673	-0.45112702	-0.23316216	0.29608238	0.41392973	-0.30359647	0.3396812	-0.37386099	-0.07207029	-0.42004737	-0.34426376
0.39606848	-0.085996255	-0.055547513	-0.15102537	0.033606157	0.22924006	0.0670252	0.072658084	-0.06770147	-0.39122245	0.250733	0.029219234	-0.01629426	-0.19713573	0.21839075	0.273459
0.3522255	-0.016375775	0.21467145	-0.2751822	0.26918405	-0.031656362	-0.118611135	-0.4402396	0.5863054	0.05615026	-0.17184697	0.19201471	0.15090749	0.01743387	0.28495464	-0.3773121
0.74075407	-0.37199178	0.3339006	-0.59471077	-0.07567918	0.19975643	-0.025780553	-0.09238177	0.15056008	-0.282288	0.23005757	0.15431507	-0.13747354	-0.20695804	0.21493821	0.024343554
0.22650886	0.14139383	-0.04516431	-0.050599266	0.17623898	-0.00064590527	0.057060193	-0.11968823	0.1803079	-0.04498498	0.010970774	0.07568718	0.21110743	0.068324	0.30627862	-0.09982906
0.6077328	-0.69560224	0.889992	-0.4340537	-0.69969213	0.5519006	-0.5441816	0.09622681	-0.009437672	-0.056572437	0.23723309	0.5453102	-0.7513045	-0.62795496	-0.57459384	0.12857503
-1.0416766	0.6545745	0.86628634	1.0220356	-0.18668588	-0.6133312	-0.917132	-0.8619703	0.97322285	0.9663523	-0.90236413	0.97440535	-0.55484474	0.6928752	-1.010439	-1.0071099
-0.15285903	0.6207917	-0.43834594	0.26275963	0.508281	-0.23375027	0.17614554	-0.31254312	0.29529935	0.010942099	-0.23751229	-0.18294747	0.5621636	0.42177206	0.34978843	-0.13917367
1.182783	-0.9928428	0.6416252	-1.334292	-0.735767	-0.91709256	0.8110966	1.1327826	-1.2889293	-1.1312225	1.2011287	-1.2610689	-0.9831761	0.16499276	-0.17021629	1.0585115
-0.18087567	0.38426802	-0.41505113	0.30847108	0.33557034	-0.020402672	0.20698974	0.005122733	0.001292768	-0.21018764	0.0801859	-0.15619804	0.319568	0.24143822	0.32436165	0.09686952
0.17284945	-0.21726435	0.1365986	0.36057964	-0.44185734	0.6644877	-0.25357842	0.37255457	-0.19217834	-0.5137367	0.48648798	0.49380842	-0.4641922	-0.6456497	-0.26514697	0.46627423
-0.1352101	0.045416452	-0.3444325	0.04381139	0.10280227	-0.059070267	0.50766504	0.46695924	-0.47438827	-0.5910127	0.4730249	-0.50760764	0.106528886	0.061069045	0.24003363	0.54867965
1.2055417	0.46285698	0.38346082	-1.1436359	0.87401956	-0.9268583	0.57640713	-0.97864205	1.0580882	0.3649621	-0.7272595	-0.5588731	0.7274603	0.7331771	0.8957927	-1.1512691
-0.35880527	0.9494134	-0.8457382	0.56459516	0.8994397	-0.4885254	0.7444525	0.07031951	-0.07503227	-0.5413464	0.034558546	-0.5699678	0.906414	0.7467514	0.8679597	0.2496317
-0.90516806	0.40705281	-0.5853628	1.0550488	0.087207034	0.35697374	0.083229154	0.3428759	-0.3397822	-0.35428867	0.21408129	0.1872617	0.14762253	-0.21562926	-0.02717894	0.50181997
-0.11010849	0.27229387	-0.3298694	0.032143533	0.32896614	-0.5532187	0.25797594	0.092784084	-0.18924572	-0.05514676	0.083757296	-0.5500815	0.20617631	0.462215	0.19885544	0.06157589
-0.27788132	0.5808256	-0.45572793	0.3753414	0.5640172	-0.43922254	0.22969076	-0.030500036	0.034327436	-0.06857562	-0.07335002	-0.2740731	0.4161432	0.5411152	0.27114844	0.042078108
0.37919378	-0.39724743	0.2535437	-0.19893286	-0.41881642	0.3781522	-0.058841396	0.34625688	-0.19765447	-0.38512972	0.44260138	0.18351224	-0.31138945	-0.4488683	-0.14789048	0.34413514
0.10128838	0.08419609	-0.048813194	-0.14680246	0.10792831	-0.07979957	-0.0008879114	0.007293014	0.013730956	-0.08809938	0.11230087	-0.08189104	0.116692975	0.12189391	0.20691745	-0.014115598
0.115049586	-0.17507981	0.22408885	-0.10464326	-0.24482392	0.06575657	-0.108713694	0.18347318	-0.17099299	-0.10940164	0.25194433	0.093700044	-0.32471696	-0.14062534	-0.14990497	0.103875406
-0.80261403	0.6301381	-0.42343664	0.7817428	0.27489188	-0.37609023	-0.10739257	-0.089542754	0.062496588	0.34821415	-0.29591462	-0.08198342	0.15444699	0.5278173	-0.38415584	-0.23361023
-0.4018651	0.69670683	0.30618215	0.27973998	0.21497767	-0.4667229	-0.38197982	-0.64966476	0.6473585	0.56133425	-0.5499647	0.35570613	0.1603716	0.47376052	-0.27257672	-0.67533475
0.440788	0.03769456	0.398374	-0.455508	0.25825274	-0.262261	-0.2088611	-0.6734303	0.670607	0.41412738	-0.46041253	0.14957792	0.1874916	0.30384555	0.1666949	-0.65008223
-0.123481415	-0.09159382	-0.19801868	0.2933227	-0.34513864	0.37619227	0.11677679	0.61903805	-0.6733773	-0.574772	0.6209967	-0.07005165	-0.26476848	-0.35317144	-0.18490565	0.6797545
-0.43518972	0.117776886	-0.175388	0.3687709	-0.014119051	-0.061653957	-0.049155623	0.17362979	-0.15722972	0.067443475	0.07399659	-0.10271662	-0.108765535	0.1266503	-0.26883563	0.1325307
-0.07118618	0.13764487	-0.04759761	0.14564662	0.0556809	-0.067643516	-0.09240982	-0.082589135	0.0690552	0.024175683	-0.1089411	0.13240294	-0.02545951	-0.0246042	0.0061113858	-0.08807494
-0.7430948	0.97779644	-1.1052939	0.86797446	0.7736734	-0.37557355	0.8699724	0.55007946	-0.68860567	-0.73549795	0.5634447	-0.9178339	0.926412	0.6931065	0.80301976	0.70944184
0.3130331	-0.56423116	0.40342033	0.15956365	-0.7187184	0.7262259	-0.40025714	0.41549477	-0.11457396	-0.33455673	0.35625142	0.54128075	-0.641792	-0.72388893	-0.6019307	0.4522499
0.61832273	-0.25163907	0.35664532	-0.33319864	-0.030585654	0.22550686	-0.11788502	-0.24643499	0.3458473	-0.13491371	-0.03214745	0.26429164	-0.109001175	-0.18044558	0.16911393	-0.113268845
-0.44978186	0.2031749	-0.09853884	0.597035	-0.21051504	0.39074153	-0.22857223	-0.04146318	0.14396073	0.071800426	-0.11703381	0.388443	-0.09393549	-0.18780197	-0.32130164	0.018976323
-0.5348574	0.58418566	-0.22610351	0.40407535	0.44731286	-0.87905014	-0.110778324	-0.30651423	0.19841161	0.3691717	-0.3906095	-0.24801375	0.3368343	0.786307	-0.19190533	-0.3850103
-0.02738159	0.024151837	-0.020530151	0.53577024	-0.24822085	0.55234694	-0.22333908	0.10552745	0.13110621	-0.20995574	0.17909296	0.5401473	-0.23020646	-0.50898165	-0.16172007	0.25692955
1.2828358	-0.9655954	0.6567682	-1.4177656	-0.54264677	-1.1988552	0.8786704	1.0742341	-1.2762383	-1.1385633	1.2153243	-1.3152281	-0.9552484	0.537631	0.14233564	1.018192
1.1580058	-0.90636414	0.91485643	-0.8487892	-0.7778487	0.46068746	-0.29345897	0.64232683	-0.56191474	-0.6916469	0.8058096	0.15415595	-0.8281819	-0.68461514	-0.39929736	0.64905137
0.41958168	-0.38439536	0.37776747	-0.31593361	-0.3442671	0.32193208	-0.30750465	0.07691633	0.12565608	-0.1294909	0.13972777	0.3889526	-0.34951285	-0.30407077	-0.1835203	0.02161959
